tree
version=v4
num_class=1
num_tree_per_iteration=1
label_index=0
max_feature_idx=4
objective=regression_l1
feature_names=store item month day year
feature_infos=[1:10] [1:50] [1:12] [0:6] [2013:2017]
tree_sizes=5494 5849 5806 5857 5891 5866 5958 5903 5973 5940 5935 5938 5954 5925 5942 5939 5964 5986 5940 5941 5905 5959 5881 5904 5834 5910 5860 5859 5979 5937 5890 5834 5930 5868 5925 5916 5910 5939 5902 5881 5888 5933 5945 5860 5897 5910 5913 5875 5905 5920 5853 5874 5917 5834 5871 5863 5861 5856 5879 5896 5919 5878 5854 5875 5830 5831 5846 5915 5858 5798 5883 5853 5825 5870 5872 5919 5870 5789 5858 5825 5808 5934 5861 5857 5934 5860 5832 5843 5825 5793 5812 5885 5941 5793 5798 5901 5815 5798 5895 5827 5767 5854 5816 5659 5830 5681 5662 5747 5811 5799 5905 5815 5820 5869 5817 5828 5828 5688 5759 5857 5763 5748 5888 5773 5944 5751 5829 5829 5713 5917 5776 5764 5711 5834 5715 5831 5758 5713 5842 5653 5761 5878 5819 5912 5915 5794 5832 5867 5713 5775 5760 5730 5770 5761 5653 5711 5738 5721 5716 5814 5709 5826 5832 5796 5751 5890 5775 5848 5880 5694 5845 5782 5850 5736 5695 5776 5828 5681 5792 5750 5756 5950 5837 5642 5588 5840 5702 5730 5781 5720 5724 5784 5660 5874 5730 5956 5848 5727 5800 5831 5795 5743 5681 5781 5644 5758 5802 5749 5735 5765 5806 5840 5842 5622 5793 5857 5741 5740 5682 5807 5870 5747 5807 5773 5756 5827 5763 5752 5774 5715 5700 5706 5754 5781 5631 5892 5800 5756 5924 5865 5874 5844 5904 5706 5835 5716 5689 5822 5731 5890 5716 5721 5815 5772 5781 5748 5809 5824 5876 5729 5780 5676 5771 5701 5847 5801 5864 5704 5871 5844 5804 5715 5885 5742 5804 5837 5796 5841 5849 5698 5780 5732 5793 5820 5664 5793 5722 5801 5647 5747 5846 5795 5829 5850 5834 5784 5777 5716 5829 5782 5667 5702 5796 5845 5727 5790 5854 5691 5786 5917 5758 5829 5795 5890 5733 5745 5800 5691 5843 5831 5803 5722 5759 5867 5739 5794 5728 5892 5754 5783 5936 5779 5638 5842 5738 5855 5868 5786 5737 5809 5933 5752 5720 5648 5655 5903 5799 5735 5754 5774 5910 5894 5834 5696 5832 5738 5847 5724 5785 5699 5646 5823 5824 5696 5872 5916 5670 5735 5698 5713 5766 5667 5703 5612 5634 5715 5870 5645 5917 5745 5830 5838 5903 5724 5626 5753 5733 5805 5680 5708 5733 5676 5733 5664 5690 5788 5781 5761 5854 5775 5802 5752 5820 5811 5685 5769 5696 5787 5711 5860 5963 5791 5725 5793 5764 5901 5767 5711 5740 5718 5812 5835 5802 5706 5783 5799 5726 5695 5908 5659 5842 5756 5814 5709 5848 5867 6023 5719 5768 5761 5777 5729 5868 5806 5761 5848 5926 5742 5764 5798 5852 5760 5760 5698 5817 5847 5864 5767 5746 5862 5728 5711 5880 5851 5910 5782 5724 5826 5886 5779 5679 5900 5756 5798 5793 5875 5910 5833 5830 5737 5850 5768 5732 5785 5761 5902 5776 5753 5746 5667 5931 5672 5859 5752 6007 5804 5806 5759 5693 5803 5945 5828 5762 5769 5609 6003 5790 5690 5826 5710 5830 5910 5694 5867 5647 5733 5809 5723 5665 5852 5836 5786 5743 5904 5895 5777 5740 5710 5919 5654 5824 5801 5726 5803 5712 5884 5804 5741 5774 5903 5834 5959 5828 5765 5858 5844 5747 5931 5765 5682 5707 5646 5732 5769 5744 5966 5858 5730 5826 5793 5792 5879 5769 5751 5766 5889 5944 5703 5736 5752 5924 5834 5935 5813 5796 5803 5882 5888 5912 5750 5668 5735 5824 5839 5752 5835 5708 5826 5981 5782 5740 5833 5913 5745 5755 5866 5724 5875 5839 5828 5742 5771 5990 5692 5794 5937 5776 5756 5892 5784 5869 5851 5831 5904 5805 5899 5844 5751 5778 5786 5858 5719 5711 5949 5816 5868 5827 5851 5809 5776 5908 5797 5873 5874 5728 5765 5811 5740 5735 5828 5918 5741 5840 5805 5694 5836 5759 5958 5713 5712 5761 5908 5926 5697 5850 5825 5800 5863 5783 5821

Tree=0
num_leaves=64
num_cat=0
split_feature=1 1 1 1 1 1 1 2 2 1 1 1 1 1 1 1 2 1 1 1 1 1 1 0 0 3 1 1 2 3 2 1 1 2 2 1 1 1 3 2 3 2 4 0 0 1 0 0 1 3 2 2 0 0 0 3 2 1 1 0 0 0 1
split_gain=26203.2 37462.1 14674.7 14828.2 11441.3 12201.6 11508.4 9311.56 7108.33 5154.03 5382.05 9831.14 7389.81 4957.98 6059.73 5135.48 3372.26 2842.98 5331.92 1713.79 3250.5 3051.21 2616.02 1401.12 4572.65 1794.5 1368.03 1729.85 1346.56 1181.13 1035.83 984.86 994.915 945.51 927.115 901.296 706.326 705.227 617.079 608.242 597.755 557.38 539.663 517.894 1328.02 494.743 490.888 1484.26 488.049 432.456 431.477 379.061 373.663 1138.33 357.014 344.927 329.925 326.936 325.434 298.632 576.499 285.366 265.448
threshold=5.5000000000000009 15.500000000000002 17.500000000000004 38.500000000000007 44.500000000000007 46.500000000000007 49.500000000000007 2.5000000000000004 2.5000000000000004 18.500000000000004 37.500000000000007 36.500000000000007 34.500000000000007 3.5000000000000004 1.5000000000000002 2.5000000000000004 11.500000000000002 47.500000000000007 48.500000000000007 39.500000000000007 41.500000000000007 43.500000000000007 42.500000000000007 7.5000000000000009 4.5000000000000009 2.5000000000000004 18.500000000000004 21.500000000000004 2.5000000000000004 3.5000000000000004 2.5000000000000004 37.500000000000007 22.500000000000004 3.5000000000000004 2.5000000000000004 9.5000000000000018 45.500000000000007 9.5000000000000018 3.5000000000000004 11.500000000000002 3.5000000000000004 11.500000000000002 2013.5000000000002 7.5000000000000009 4.5000000000000009 8.5000000000000018 7.5000000000000009 4.5000000000000009 45.500000000000007 3.5000000000000004 11.500000000000002 3.5000000000000004 7.5000000000000009 4.5000000000000009 1.5000000000000002 3.5000000000000004 11.500000000000002 9.5000000000000018 8.5000000000000018 7.5000000000000009 4.5000000000000009 7.5000000000000009 16.500000000000004
decision_type=2 2 2 2 2 2 2 2 2 2 2 2 2 2 2 2 2 2 2 2 2 2 2 2 2 2 2 2 2 2 2 2 2 2 2 2 2 2 2 2 2 2 2 2 2 2 2 2 2 2 2 2 2 2 2 2 2 2 2 2 2 2 2
left_child=13 8 62 7 19 28 17 26 29 -9 11 12 -11 14 -1 30 23 -7 -19 33 -21 22 -22 24 -10 35 -4 -28 48 43 -16 32 -29 -5 -8 58 -30 45 61 -38 57 52 -37 44 54 -27 47 -31 -6 -17 -36 -51 53 -32 -2 -55 -40 -18 -26 60 -53 -35 -3
right_child=1 2 3 4 5 6 34 9 16 10 -12 -13 -14 -15 15 49 40 18 -20 20 21 -23 -24 -25 25 37 27 31 36 46 41 -33 -34 38 50 42 39 -39 56 -41 -42 -43 -44 -45 -46 -47 -48 -49 -50 51 -52 59 -54 55 -56 -57 -58 -59 -60 -61 -62 -63 -64
leaf_value=41.799999999999997 45.399999999999999 42.600000000000001 49.399999999999999 44.200000000000003 48.799999999999997 41.799999999999997 46.799999999999997 54.799999999999997 53.399999999999999 47.799999999999997 54 43.600000000000001 52.200000000000003 41.399999999999999 45.799999999999997 44 45.600000000000001 47.399999999999999 43.200000000000003 42.399999999999999 44.600000000000001 43.200000000000003 47.399999999999999 54 46.600000000000001 48.600000000000001 43.600000000000001 48.799999999999997 54.200000000000003 49.399999999999999 51.200000000000003 48.799999999999997 44.799999999999997 45.200000000000003 51.600000000000001 46.200000000000003 50 50.399999999999999 48.600000000000001 46.200000000000003 49 46.399999999999999 48.399999999999999 47.399999999999999 44 46.600000000000001 49.799999999999997 45.600000000000001 45.799999999999997 43.799999999999997 47.200000000000003 47 51.799999999999997 46 47.600000000000001 48 45 47.399999999999999 44.799999999999997 47.799999999999997 44 47.200000000000003 44
leaf_weight=11691 1064 11641 1895 2920 1893 11576 1910 9829 35220 156605 9833 9771 19660 23322 1901 6611 2286 11641 11610 23474 11583 11662 11626 26330 3373 4592 5607 1923 9904 3233 3475 1930 28550 3593 8827 1352 8797 8905 3407 990 4290 1000 5477 3186 3283 1475 2472 2430 1877 1245 979 1532 2671 1509 3259 1188 428 3419 1142 1155 1137 1545 11663
leaf_count=11691 1064 11641 1895 2920 1893 11576 1910 9829 35220 156605 9833 9771 19660 23322 1901 6611 2286 11641 11610 23474 11583 11662 11626 26330 3373 4592 5607 1923 9904 3233 3475 1930 28550 3593 8827 1352 8797 8905 3407 990 4290 1000 5477 3186 3283 1475 2472 2430 1877 1245 979 1532 2671 1509 3259 1188 428 3419 1142 1155 1137 1545 11663
internal_value=47 47.014 46.9854 46.9948 46.9429 47.0001 46.9408 47.0244 47.1139 47.0415 47.0344 47.0268 47.0376 46.8728 46.9203 46.979 47.1356 46.8831 46.9235 46.8858 46.8717 46.9105 46.9525 47.1481 47.1315 47.0684 46.936 46.9277 47.1177 47.0016 47.0724 46.9455 46.9367 46.9551 47.1122 47.0083 47.1387 47.1139 46.9874 47.1003 47.0254 47.0985 47.0542 46.9583 46.9299 47.0611 47.0592 47.0266 47.008 46.8851 47.1371 46.9294 47.1145 47.0872 47.0026 46.9899 47.048 46.9831 46.9391 46.9609 46.924 46.942 46.8313
internal_weight=0 525937 409149 385845 140242 70004 46543 245603 116788 205698 195869 186036 176265 58437 35115 23424 97861 34827 23251 70238 58345 34871 23209 87866 61536 26316 39905 38010 23461 18927 11744 32403 30473 11893 11716 11344 19691 14972 8973 9787 9995 9843 6829 10792 7606 6067 8135 5663 3770 11680 9806 5069 8843 6172 4323 2697 3835 5705 4515 3824 2669 5138 23304
internal_count=584374 525937 409149 385845 140242 70004 46543 245603 116788 205698 195869 186036 176265 58437 35115 23424 97861 34827 23251 70238 58345 34871 23209 87866 61536 26316 39905 38010 23461 18927 11744 32403 30473 11893 11716 11344 19691 14972 8973 9787 9995 9843 6829 10792 7606 6067 8135 5663 3770 11680 9806 5069 8843 6172 4323 2697 3835 5705 4515 3824 2669 5138 23304
is_linear=0
shrinkage=1


Tree=1
num_leaves=64
num_cat=0
split_feature=1 1 1 1 1 1 1 2 2 2 1 1 1 3 2 1 1 2 3 3 1 1 3 1 1 3 4 2 2 0 0 0 2 1 2 1 1 1 0 0 1 1 3 2 4 1 0 1 2 1 1 2 4 0 1 1 3 0 1 4 1 1 0
split_gain=23442.1 29363 11678.7 12943.6 8314.76 9664.58 9275.62 6515.54 5947.29 5735.92 5047.07 5865.86 3997.68 3431.53 3080.49 2803.79 4301.44 2014.73 1885.12 1667.31 1666.55 2303.49 1564.32 1519.16 1618.05 1444.23 1252.96 912.528 847.733 874.062 831.173 2372.21 788.057 786.165 734.557 717.517 952.635 644.488 641.927 1693.22 638.855 1204.39 630.947 621.909 575.023 574.544 535.417 506.486 486.967 483.284 486.796 456.84 445.335 438.825 424.811 525.351 421.893 412.167 407.825 405.883 401.882 388.849 382.155
threshold=5.5000000000000009 15.500000000000002 17.500000000000004 38.500000000000007 44.500000000000007 46.500000000000007 49.500000000000007 3.5000000000000004 11.500000000000002 3.5000000000000004 3.5000000000000004 1.5000000000000002 2.5000000000000004 2.5000000000000004 11.500000000000002 47.500000000000007 48.500000000000007 3.5000000000000004 1.0000000180025095e-35 3.5000000000000004 18.500000000000004 21.500000000000004 3.5000000000000004 18.500000000000004 37.500000000000007 2.5000000000000004 2013.5000000000002 2.5000000000000004 11.500000000000002 7.5000000000000009 7.5000000000000009 4.5000000000000009 3.5000000000000004 9.5000000000000018 11.500000000000002 18.500000000000004 21.500000000000004 9.5000000000000018 7.5000000000000009 4.5000000000000009 39.500000000000007 41.500000000000007 3.5000000000000004 2.5000000000000004 2013.5000000000002 9.5000000000000018 7.5000000000000009 22.500000000000004 11.500000000000002 9.5000000000000018 8.5000000000000018 3.5000000000000004 2014.5000000000002 1.5000000000000002 8.5000000000000018 7.5000000000000009 3.5000000000000004 7.5000000000000009 8.5000000000000018 2013.5000000000002 7.5000000000000009 9.5000000000000018 7.5000000000000009
decision_type=2 2 2 2 2 2 2 2 2 2 2 2 2 2 2 2 2 2 2 2 2 2 2 2 2 2 2 2 2 2 2 2 2 2 2 2 2 2 2 2 2 2 2 2 2 2 2 2 2 2 2 2 2 2 2 2 2 2 2 2 2 2 2
left_child=10 9 56 7 17 27 15 22 13 25 11 -1 32 20 18 -7 -17 -5 44 40 -9 -22 30 -15 -25 37 45 -6 29 -21 31 53 -13 54 46 -24 -37 -2 39 -16 -19 -42 -10 -8 -11 58 -29 -38 -34 50 -28 -14 -39 -4 55 -27 -3 -45 60 -35 -20 -46 -53
right_child=1 2 3 4 5 6 43 8 42 14 -12 12 51 23 38 16 -18 19 26 28 21 -23 35 24 -26 33 49 34 -30 -31 -32 -33 48 59 -36 36 47 52 -40 -41 41 -43 -44 57 61 -47 -48 -49 -50 -51 -52 62 -54 -55 -56 -57 -58 -59 -60 -61 -62 -63 -64
leaf_value=-4.1599999999999993 -1.5200000000000005 -3.6000000000000001 -2.1599999999999997 -3.6799999999999997 0.04000000000000057 -4.1599999999999993 -0.15999999999999945 5.2400000000000011 -2.5599999999999996 -0.47999999999999976 -4.4799999999999995 -0.5599999999999995 -3.3599999999999994 9.0400000000000009 1.4000000000000001 0.32000000000000028 -3.0400000000000009 -0.84000000000000064 0.52000000000000035 -1.1200000000000003 -1.3599999999999994 1.0400000000000007 4.1200000000000001 2.4400000000000008 8.5999999999999996 -0.15999999999999945 4.4799999999999995 3 -3.1200000000000006 0.72000000000000031 -0.5599999999999995 -3.5599999999999996 2.5599999999999996 0.24000000000000057 0.15999999999999945 -1.7200000000000004 4.0400000000000009 -0.87999999999999978 2 -2.0799999999999996 -3.6799999999999997 -1.8400000000000007 -0.5599999999999995 2.2799999999999998 0.60000000000000009 3.3200000000000003 6.2000000000000002 0.04000000000000057 -0.47999999999999976 6.6000000000000005 1.6799999999999997 -1.8 0.92000000000000037 -0.35999999999999943 -1.2799999999999998 2.8000000000000003 -2.3200000000000003 5.2800000000000002 -0.67999999999999972 2.7200000000000006 4 2.7200000000000006 -0.20000000000000001
leaf_weight=11691 4872 13349 3429 17318 3770 11576 1910 3387 11960 2265 23322 2883 2832 4495 4029 11641 11610 5138 2658 14087 10059 56816 1262 84839 4518 3333 16051 12370 2553 6060 10432 10342 7861 1931 2034 3687 1212 2912 2995 2971 10051 15031 8896 6823 3545 8054 5287 19852 1000 32058 5342 6198 4395 10417 1646 1649 9955 2983 1356 8004 1342 5380 2650
leaf_count=11691 4872 13349 3429 17318 3770 11576 1910 3387 11960 2265 23322 2883 2832 4495 4029 11641 11610 5138 2658 14087 10059 56816 1262 84839 4518 3333 16051 12370 2553 6060 10432 10342 7861 1931 2034 3687 1212 2912 2995 2971 10051 15031 8896 6823 3545 8054 5287 19852 1000 32058 5342 6198 4395 10417 1646 1649 9955 2983 1356 8004 1342 5380 2650
internal_value=0 0.0103049 -0.0149416 -0.00663521 -0.055112 -0.00632195 -0.0590896 0.0210434 0.0396954 0.0987558 -0.123217 -0.0752772 -0.0174918 0.052482 0.124081 -0.110881 -0.0707828 -0.103728 0.137469 -0.0843184 0.0190448 0.0120994 -0.0358464 0.0775066 0.0717836 0.0211509 0.150191 0.0983287 -0.0433063 -0.0294979 -0.0636913 -0.0840472 0.0648662 0.059603 0.115588 0.00119083 -0.00629316 -0.0310936 0.019462 -0.01362 -0.115097 -0.128275 -0.0608842 0.0948021 0.0613762 0.095384 0.128697 0.0101002 0.0944252 0.163924 0.140456 -0.10035 0.00639956 -0.0298492 0.00615002 0.0353425 -0.152426 0.115138 0.0444081 0.0951887 0.0765887 0.0842277 -0.0777974
internal_weight=0 525937 409149 385845 140242 70004 46543 245603 184970 116788 58437 35115 23424 164114 88046 34827 23251 70238 78051 52920 70262 66875 60633 93852 89357 28742 66861 23461 22700 20147 34620 24188 11744 16563 19691 26013 24751 12179 9995 7000 30220 25082 20856 11716 11190 13410 17657 21064 8861 53451 21393 11680 7307 13846 6628 4982 23304 9806 5356 9935 4000 8925 8848
internal_count=584374 525937 409149 385845 140242 70004 46543 245603 184970 116788 58437 35115 23424 164114 88046 34827 23251 70238 78051 52920 70262 66875 60633 93852 89357 28742 66861 23461 22700 20147 34620 24188 11744 16563 19691 26013 24751 12179 9995 7000 30220 25082 20856 11716 11190 13410 17657 21064 8861 53451 21393 11680 7307 13846 6628 4982 23304 9806 5356 9935 4000 8925 8848
is_linear=0
shrinkage=0.2


Tree=2
num_leaves=64
num_cat=0
split_feature=1 1 2 0 0 2 1 1 0 3 1 1 1 1 1 1 2 2 0 0 4 4 1 1 1 0 3 1 1 1 1 1 3 4 1 1 0 0 1 0 0 1 1 3 1 4 1 0 0 1 1 0 1 1 1 4 1 2 4 1 4 4 1
split_gain=20092.9 22110 9041.88 7517.8 22055.8 4672.96 4556.58 5146.63 3839.73 2963.75 2855.99 2581.44 2451.08 2318.17 3320.53 2292.48 2201.65 2151.57 2031.59 5592.36 1869.4 1672.68 1621.58 1571.63 1862.17 1423.47 1300.22 1183.26 1775.23 1119.3 971.191 1038.26 937.59 923.773 880.452 1291.65 862.565 2209.38 794.771 782.895 2135.53 763.679 757.49 689.433 683.266 652.939 645.164 625.35 1783.88 560.017 552.454 550.442 538.512 517.253 2720.62 501.672 458.558 431.375 424.048 387.246 367.354 365.39 360.97
threshold=5.5000000000000009 15.500000000000002 2.5000000000000004 7.5000000000000009 4.5000000000000009 2.5000000000000004 3.5000000000000004 1.5000000000000002 1.5000000000000002 3.5000000000000004 2.5000000000000004 16.500000000000004 16.500000000000004 38.500000000000007 21.500000000000004 22.500000000000004 11.500000000000002 11.500000000000002 7.5000000000000009 4.5000000000000009 2013.5000000000002 2013.5000000000002 23.500000000000004 38.500000000000007 17.500000000000004 1.5000000000000002 2.5000000000000004 44.500000000000007 45.500000000000007 14.500000000000002 17.500000000000004 38.500000000000007 2.5000000000000004 2015.5000000000002 44.500000000000007 45.500000000000007 7.5000000000000009 4.5000000000000009 36.500000000000007 7.5000000000000009 4.5000000000000009 42.500000000000007 49.500000000000007 2.5000000000000004 49.500000000000007 2014.5000000000002 33.500000000000007 7.5000000000000009 4.5000000000000009 46.500000000000007 38.500000000000007 1.5000000000000002 37.500000000000007 17.500000000000004 18.500000000000004 2014.5000000000002 42.500000000000007 2.5000000000000004 2014.5000000000002 38.500000000000007 2015.5000000000002 2013.5000000000002 37.500000000000007
decision_type=2 2 2 2 2 2 2 2 2 2 2 2 2 2 2 2 2 2 2 2 2 2 2 2 2 2 2 2 2 2 2 2 2 2 2 2 2 2 2 2 2 2 2 2 2 2 2 2 2 2 2 2 2 2 2 2 2 2 2 2 2 2 2
left_child=6 5 23 4 8 36 7 -1 30 18 43 -5 -10 14 53 -16 21 20 19 25 50 -14 -17 24 -3 60 38 -15 -29 33 -4 52 -26 -21 -25 -36 37 51 -22 40 -11 -33 -30 -9 49 -42 -28 48 -34 -37 62 -2 -32 -6 -55 -20 -52 -12 -59 -18 -7 -38 -13
right_child=1 2 3 11 13 9 -8 10 12 39 57 17 16 27 15 22 59 -19 55 29 26 -23 -24 34 32 -27 46 28 42 -31 31 41 47 -35 35 44 61 -39 -40 -41 45 -43 -44 -45 -46 -47 -48 -49 -50 -51 56 -53 -54 54 -56 -57 -58 58 -60 -61 -62 -63 -64
leaf_value=-3.3280000000000003 -0.82399999999999951 -4 -2.48 -1.8560000000000003 -3.6000000000000001 -0.34399999999999981 -3.5840000000000005 -0.11200000000000046 -1.8 5.8240000000000016 -3.0879999999999996 0.55200000000000105 0.34399999999999981 -3.2560000000000002 2.5520000000000014 -5.2479999999999993 -0.047999999999998981 -1.0719999999999998 1.8560000000000003 -1.4159999999999997 2.3120000000000007 2.7520000000000011 -1.1679999999999993 -3.3439999999999999 -2.0479999999999992 3.6000000000000001 4.5520000000000014 0.95999999999999952 -2.944 2 0.032000000000000743 -2.2719999999999998 0.39200000000000018 0 1.4320000000000008 -0.96799999999999931 -0.70399999999999929 -1.9599999999999995 0.05600000000000023 6.4359999999999999 0.05600000000000023 -0.71199999999999908 -0.69600000000000084 2.1280000000000001 -0.12800000000000011 1.8 2.3760000000000008 0.83200000000000074 -2.5679999999999996 -3.9280000000000004 -1.944 1.2560000000000002 3.6799999999999997 0.79200000000000026 -3.0479999999999992 4.104000000000001 -0.23200000000000076 -1.9599999999999995 -0.64000000000000057 -1.7439999999999998 1.624000000000001 1.4960000000000009 4.5920000000000005
leaf_weight=11691 1898 3790 1932 2955 5839 3425 23322 5001 2919 16807 1847 11200 17913 17621 2965 2897 6564 10201 6712 9041 18200 71676 44105 11379 17033 16751 20464 2955 11716 1679 19735 3927 9218 6066 1893 1877 1129 5713 12602 12536 5007 7804 2877 6743 1910 7494 20458 6842 6812 5623 2134 5658 987 2948 8784 10077 4221 3944 5889 3626 2266 4529 547
leaf_count=11691 1898 3790 1932 2955 5839 3425 23322 5001 2919 16807 1847 11200 17913 17621 2965 2897 6564 10201 6712 9041 18200 71676 44105 11379 17033 16751 20464 2955 11716 1679 19735 3927 9218 6066 1893 1877 1129 5713 12602 12536 5007 7804 2877 6743 1910 7494 20458 6842 6812 5623 2134 5658 987 2948 8784 10077 4221 3944 5889 3626 2266 4529 547
internal_value=0 0.00640868 -0.0154988 -0.00241319 -0.0218254 0.0831621 -0.117207 -0.0716551 0.030674 0.100756 -0.017526 0.0427808 0.0500441 -0.0919013 -0.0701942 -0.043874 0.0553345 0.0482294 0.0706459 0.0456981 0.0581169 0.0653561 -0.0546449 -0.0830609 -0.0608537 0.111009 0.0726112 -0.13356 -0.0966888 -0.0415857 -0.0271601 -0.0189297 -0.0481002 -0.0588341 -0.125801 -0.0861122 -0.00777501 -0.0356828 0.0415317 0.141042 0.123059 -0.0664721 -0.125321 0.0520799 -0.116455 0.0603634 0.095985 -0.0216036 -0.0432223 -0.143648 0.000650676 0.035214 0.00796048 -0.144986 -0.120578 0.128882 -0.0468045 -0.0875618 -0.0707589 -0.032707 0.0244436 0.0575487 0.0263814
internal_weight=0 525937 409149 342772 239790 116788 58437 35115 137083 97861 23424 102982 102698 102707 67538 49967 99779 100027 56017 39228 89826 89589 47002 66377 43695 22442 71724 35169 17548 16786 34385 32453 39905 15107 22682 11303 18927 13269 30802 41844 29308 11731 14593 11744 9410 12501 40922 22872 16030 7500 18102 7556 20722 17571 11732 16789 6355 11680 9833 10190 5691 5658 11747
internal_count=584374 525937 409149 342772 239790 116788 58437 35115 137083 97861 23424 102982 102698 102707 67538 49967 99779 100027 56017 39228 89826 89589 47002 66377 43695 22442 71724 35169 17548 16786 34385 32453 39905 15107 22682 11303 18927 13269 30802 41844 29308 11731 14593 11744 9410 12501 40922 22872 16030 7500 18102 7556 20722 17571 11732 16789 6355 11680 9833 10190 5691 5658 11747
is_linear=0
shrinkage=0.2


Tree=3
num_leaves=64
num_cat=0
split_feature=1 1 1 1 1 1 1 1 1 1 1 1 1 1 1 1 2 1 1 2 3 1 4 1 1 4 3 1 1 4 3 3 3 4 3 4 1 2 3 1 3 3 1 1 0 0 2 2 2 1 4 0 0 4 2 4 2 0 0 1 1 1 1
split_gain=16528.3 17094.6 8549.1 8976.61 9766.65 4635.11 6343.38 5581.79 12460.7 9524.05 4107.6 4415.41 3726.32 5163.02 7459 3775.8 3667.43 3293.7 4164.59 3258.31 2015.17 1937.01 1338.27 1264.87 1234.73 1205.83 1107.44 849.375 1289.23 791.07 715.793 675.546 661.509 630.433 612.571 547.076 541.722 528.551 520.745 501.529 501.524 433.531 418.29 1068.55 405.625 1089.39 400.442 387.26 381.461 370.39 360.733 347.52 1069.77 367.315 342.711 330.852 326.908 321.045 912.917 315.403 332.484 425.264 313.683
threshold=5.5000000000000009 15.500000000000002 17.500000000000004 39.500000000000007 41.500000000000007 18.500000000000004 21.500000000000004 22.500000000000004 23.500000000000004 25.500000000000004 3.5000000000000004 1.5000000000000002 49.500000000000007 46.500000000000007 44.500000000000007 43.500000000000007 3.5000000000000004 47.500000000000007 48.500000000000007 11.500000000000002 2.5000000000000004 2.5000000000000004 2015.5000000000002 14.500000000000002 9.5000000000000018 2015.5000000000002 2.5000000000000004 8.5000000000000018 7.5000000000000009 2014.5000000000002 4.5000000000000009 3.5000000000000004 4.5000000000000009 2013.5000000000002 2.5000000000000004 2015.5000000000002 9.5000000000000018 2.5000000000000004 1.0000000180025095e-35 9.5000000000000018 3.5000000000000004 3.5000000000000004 14.500000000000002 13.500000000000002 7.5000000000000009 4.5000000000000009 3.5000000000000004 3.5000000000000004 8.5000000000000018 40.500000000000007 2015.5000000000002 7.5000000000000009 4.5000000000000009 2013.5000000000002 2.5000000000000004 2014.5000000000002 3.5000000000000004 7.5000000000000009 4.5000000000000009 7.5000000000000009 13.500000000000002 12.500000000000002 8.5000000000000018
decision_type=2 2 2 2 2 2 2 2 2 2 2 2 2 2 2 2 2 2 2 2 2 2 2 2 2 2 2 2 2 2 2 2 2 2 2 2 2 2 2 2 2 2 2 2 2 2 2 2 2 2 2 2 2 2 2 2 2 2 2 2 2 2 2
left_child=10 16 40 5 49 51 22 54 -9 -10 11 -1 13 14 15 -6 23 -15 -19 20 24 33 30 25 27 32 -16 28 50 39 -7 46 59 -13 56 42 -21 -35 -27 62 -3 -23 43 -26 45 -39 -24 -42 -49 -5 -18 52 -4 -54 -8 -38 -14 58 -40 -2 61 -61 -22
right_child=1 2 3 4 12 6 7 8 9 -11 -12 21 34 17 26 -17 19 18 -20 36 29 41 31 -25 35 38 -28 -29 -30 -31 -32 -33 -34 37 -36 -37 55 44 57 -41 47 -43 -44 -45 -46 -47 -48 48 -50 -51 -52 -53 53 -55 -56 -57 -58 -59 -60 60 -62 -63 -64
leaf_value=-2.6623999999999999 -1.8671999999999997 -2.4400000000000008 5.9135999999999997 -2.0751999999999997 -0.27519999999999956 -2.1263999999999998 1.5536000000000003 -3.9184000000000001 4.2656000000000009 0.2415999999999997 -2.8672 -0.88960000000000017 -1.1024 -3.1391999999999998 0.78880000000000061 -2.4207999999999998 -0.55680000000000118 0.50559999999999972 -2.2432000000000003 -1.2912000000000008 1.7591999999999992 -1.7120000000000006 -2.0383999999999989 3.0367999999999995 1.6575999999999995 -1.0640000000000001 3.5023999999999988 -0.94080000000000019 3.4672000000000001 4.7840000000000007 -0.75839999999999896 0.4416000000000011 0.39680000000000037 -0.67359999999999909 3.2735999999999992 3.4591999999999987 -0.64480000000000082 3.0223999999999993 2.0848 3.4352000000000005 -2.536 -0.51200000000000045 3.9167999999999994 -1.1168000000000007 3.3504000000000005 -0.58560000000000023 -0.55039999999999911 -0.4847999999999999 -1.7600000000000009 -3.4751999999999996 0.88320000000000087 6.4416000000000011 -1.5664000000000002 0.87360000000000193 6.281600000000001 1.1551999999999993 1.2735999999999992 2.1968000000000005 -0.59200000000000019 -0.79519999999999991 -2.1352000000000007 1.2048000000000003 -0.26559999999999989
leaf_weight=11691 2443 13349 4717 11769 23209 14875 1923 11594 23370 164087 23322 2375 1234 11576 10037 11662 3938 11641 11610 3994 5352 6611 1975 2867 8068 1491 13424 3385 3348 26551 6018 6037 4433 1534 6695 8102 2362 3083 3563 10733 2454 5069 2042 2058 2366 2386 6006 4194 3307 11705 2710 3491 698 2818 9887 3639 3787 2624 2707 6162 1251 1201 1764
leaf_count=11691 2443 13349 4717 11769 23209 14875 1923 11594 23370 164087 23322 2375 1234 11576 10037 11662 3938 11641 11610 3994 5352 6611 1975 2867 8068 1491 13424 3385 3348 26551 6018 6037 4433 1534 6695 8102 2362 3083 3563 10733 2454 5069 2042 2058 2366 2386 6006 4194 3307 11705 2710 3491 698 2818 9887 3639 3787 2624 2707 6162 1251 1201 1764
internal_value=0 0.00279686 -0.0164662 -0.00935908 -0.0525678 0.0121763 0.0063122 0.0193887 0.0114581 0.0239069 -0.109319 -0.0660682 -0.0264572 -0.0398315 -0.00343843 -0.0621088 0.0702861 -0.100763 -0.0573142 0.0905358 0.104305 -0.0159295 -0.0726466 0.00823033 0.0673437 -0.0057184 0.0837361 0.0201271 0.0494832 0.132297 -0.104728 -0.0247758 -0.0410884 0.0413878 0.0798178 0.0984751 -0.0169215 0.0647443 0.0469756 0.0996071 -0.134097 -0.0736099 0.0715294 0.054752 0.0857853 0.0556256 -0.0629739 -0.0998981 -0.0771301 -0.169178 -0.00141039 0.135021 0.112334 0.0285825 0.152966 0.0209829 0.0268276 0.0653461 0.0405839 -0.067268 -0.0491335 -0.0327969 0.0582362
internal_weight=0 525937 409149 385845 128349 257496 245772 210861 199051 187457 58437 35115 104875 93159 58332 34871 116788 34827 23251 88046 78051 23424 34911 28742 33651 25875 23461 13381 9996 44400 20893 14018 15490 11744 11716 20270 9995 9369 10385 17849 23304 11680 12168 10126 7835 5469 7981 9955 7501 23474 6648 11724 8233 3516 11810 6001 5021 8894 6270 11057 8614 7363 7116
internal_count=584374 525937 409149 385845 128349 257496 245772 210861 199051 187457 58437 35115 104875 93159 58332 34871 116788 34827 23251 88046 78051 23424 34911 28742 33651 25875 23461 13381 9996 44400 20893 14018 15490 11744 11716 20270 9995 9369 10385 17849 23304 11680 12168 10126 7835 5469 7981 9955 7501 23474 6648 11724 8233 3516 11810 6001 5021 8894 6270 11057 8614 7363 7116
is_linear=0
shrinkage=0.2


Tree=4
num_leaves=64
num_cat=0
split_feature=3 4 2 2 0 0 1 1 0 4 0 0 1 1 1 1 1 1 2 1 2 4 2 1 1 1 0 0 0 0 2 2 2 1 1 0 0 0 0 1 1 2 0 2 1 1 1 1 1 0 1 3 2 1 1 0 0 4 1 0 0 1 2
split_gain=12809 7174.85 5682.42 4718.91 4025.27 10430.8 3263.72 3236.85 2563.44 2365.94 2021.86 5117.04 1720.53 1645.09 1625.36 1605.81 1603.5 1894.15 1573.87 1517.09 1322.92 1215.36 1181.29 1032.05 1013.25 1028.35 921.166 2815.8 917.424 3007.63 874.398 848.855 848.389 828.33 1016.56 723.707 2097.17 698.259 2253.45 697.584 685.162 661.642 631.901 626.563 614.889 614.452 591.283 578.87 647.951 571.772 544.028 507.271 484.473 483.406 481.707 458.129 1121.95 438.511 424.526 418.196 994.733 417.426 417.138
threshold=3.5000000000000004 2015.5000000000002 3.5000000000000004 9.5000000000000018 7.5000000000000009 4.5000000000000009 5.5000000000000009 15.500000000000002 1.5000000000000002 2015.5000000000002 7.5000000000000009 4.5000000000000009 5.5000000000000009 15.500000000000002 5.5000000000000009 15.500000000000002 5.5000000000000009 15.500000000000002 3.5000000000000004 5.5000000000000009 9.5000000000000018 2013.5000000000002 3.5000000000000004 15.500000000000002 3.5000000000000004 1.5000000000000002 7.5000000000000009 4.5000000000000009 7.5000000000000009 4.5000000000000009 9.5000000000000018 11.500000000000002 3.5000000000000004 5.5000000000000009 15.500000000000002 7.5000000000000009 4.5000000000000009 7.5000000000000009 4.5000000000000009 38.500000000000007 3.5000000000000004 11.500000000000002 1.5000000000000002 3.5000000000000004 5.5000000000000009 1.5000000000000002 21.500000000000004 38.500000000000007 7.5000000000000009 1.5000000000000002 9.5000000000000018 1.0000000180025095e-35 11.500000000000002 17.500000000000004 9.5000000000000018 4.5000000000000009 7.5000000000000009 2013.5000000000002 36.500000000000007 7.5000000000000009 4.5000000000000009 17.500000000000004 11.500000000000002
decision_type=2 2 2 2 2 2 2 2 2 2 2 2 2 2 2 2 2 2 2 2 2 2 2 2 2 2 2 2 2 2 2 2 2 2 2 2 2 2 2 2 2 2 2 2 2 2 2 2 2 2 2 2 2 2 2 2 2 2 2 2 2 2 2
left_child=1 4 14 9 5 8 24 35 -1 16 11 32 -6 50 -2 54 40 59 -10 -5 33 -21 -15 -23 25 -3 27 42 29 -19 53 55 -9 -20 -35 36 49 38 -11 46 45 51 -17 -12 -40 -4 -13 48 -7 -8 -14 -34 -45 -24 -16 -25 -57 -50 -55 60 -18 -31 -22
right_child=2 6 3 19 12 47 7 10 18 37 43 39 13 22 15 26 17 28 20 21 62 23 30 31 -26 -27 -28 -29 -30 61 -32 -33 41 34 -36 -37 -38 -39 44 -41 -42 -43 -44 52 -46 -47 -48 -49 57 -51 -52 -53 -54 58 -56 56 -58 -59 -60 -61 -62 -63 -64
leaf_value=-1.7827200000000005 -2.0947199999999992 -1.9299200000000001 -1.12992 -1.4937599999999998 -1.6937599999999997 -3.045440000000001 0.52256000000000002 -0.66015999999999986 -1.35616 4.3513600000000006 -0.30143999999999949 -1.9683200000000001 0.10959999999999966 -1.6819199999999996 -0.044159999999999401 -1.3027200000000008 4.1481600000000016 2.0086399999999984 -0.90559999999999974 -1.1651199999999988 -0.34783999999999937 1.8134399999999999 -1.1024 1.8972800000000007 -2.2937599999999998 0.030400000000000205 0.21728000000000094 -2.3548800000000001 2.2124800000000007 -2.3190399999999998 -1.131519999999999 -0.86751999999999896 0.057599999999999346 2.4601600000000006 0.60336000000000001 2.82944 -0.3926400000000001 4.6359999999999983 -1.2937599999999998 -2.0915200000000014 -1.2937599999999998 -1.1481600000000001 0.50047999999999893 1.9212800000000017 0.87328000000000117 0.99039999999999973 -1.1347199999999986 -3.0601600000000007 -2.8131199999999996 3.3273600000000005 1.90368 1.9488000000000001 -0.86591999999999847 1.59328 1.5586400000000005 -1.0867199999999984 1.9843199999999996 -1.8483200000000011 -0.14015999999999879 4.5617600000000014 0.35776000000000041 -0.86271999999999882 -1.6915199999999986
leaf_weight=20105 6212 2683 1479 6305 5912 8333 2687 9374 14656 20248 6978 4814 4796 10347 4936 4299 6016 20948 3033 11170 9861 10105 1223 9419 5344 5348 13013 12990 15768 907 10682 11925 6335 5986 21078 7913 8043 15182 1536 9608 3042 2960 13058 18747 13586 3059 13614 14490 12400 8010 7266 18744 2210 11519 7432 7030 7069 24823 8470 4497 4440 14908 5403
leaf_count=20105 6212 2683 1479 6305 5912 8333 2687 9374 14656 20248 6978 4814 4796 10347 4936 4299 6016 20948 3033 11170 9861 10105 1223 9419 5344 5348 13013 12990 15768 907 10682 11925 6335 5986 21078 7913 8043 15182 1536 9608 3042 2960 13058 18747 13586 3059 13614 14490 12400 8010 7266 18744 2210 11519 7432 7030 7069 24823 8470 4497 4440 14908 5403
internal_value=0 -0.0350727 0.0247567 0.042016 -0.0589981 -0.077578 0.000858828 0.0113061 -0.0303349 0.0644217 -0.00623407 -0.0254657 -0.0157358 -0.00456636 -0.0277962 -0.0169633 0.0418797 0.0516808 -0.00961648 -0.00263353 0.00878187 0.00770404 -0.0231792 0.0222121 -0.0928379 -0.0477947 -0.0351033 -0.0541938 0.0337835 0.0164495 -0.00410636 0.0061158 0.0229309 0.0331157 0.0442377 0.0727785 0.0512929 0.0978773 0.0824184 -0.0900669 -0.0452832 0.0403531 -0.00145049 0.0387996 0.0239459 0.00382749 -0.0672011 -0.140602 -0.129454 0.109307 0.060554 0.0509203 0.056087 0.0193722 0.0465753 0.0281698 0.00530285 -0.1181 0.0268698 0.114495 0.0923784 -0.0493604 -0.0391552
internal_weight=0 333795 250579 188639 200383 140168 133412 120037 80122 125616 93384 65449 60215 54303 61940 55728 75064 67484 60017 63023 45361 56718 42241 45548 13375 8031 43360 30347 52531 36763 31894 35443 37413 30097 27064 26653 18740 50552 35370 28036 7580 28039 17357 27935 15122 4538 18428 60046 45556 10697 12062 25079 20957 21212 12368 23518 14099 37223 19989 14953 10456 15815 15264
internal_count=584374 333795 250579 188639 200383 140168 133412 120037 80122 125616 93384 65449 60215 54303 61940 55728 75064 67484 60017 63023 45361 56718 42241 45548 13375 8031 43360 30347 52531 36763 31894 35443 37413 30097 27064 26653 18740 50552 35370 28036 7580 28039 17357 27935 15122 4538 18428 60046 45556 10697 12062 25079 20957 21212 12368 23518 14099 37223 19989 14953 10456 15815 15264
is_linear=0
shrinkage=0.2


Tree=5
num_leaves=64
num_cat=0
split_feature=3 4 1 1 1 1 1 1 1 1 1 1 1 1 2 1 1 1 1 1 0 0 4 0 1 1 1 1 0 1 1 1 0 1 1 2 1 1 1 1 1 1 2 1 1 2 2 1 0 0 0 1 1 2 2 1 1 1 1 0 0 0 2
split_gain=10731.2 9303.73 7068.83 7887.28 5345.11 5244.53 6088.87 10753.5 5480.36 6714.75 4763.23 3543.24 3243.67 3218.69 2018.64 1893.04 1793.29 2356.49 1696.66 2610.12 1621.66 4197.43 1340.05 1257.4 1073.62 946.358 1018.9 797.452 802.984 625.608 681.448 611.192 606.063 599.259 681.4 576.084 487.677 486.14 445.284 612.613 409.082 556.927 403.264 397.874 395.387 386.735 423.433 380.74 354.065 352.559 716.996 338.493 518.18 321.695 387.15 308.541 452.736 308.415 302.313 286.779 727.442 493.317 283.238
threshold=1.0000000180025095e-35 2013.5000000000002 5.5000000000000009 15.500000000000002 17.500000000000004 36.500000000000007 34.500000000000007 33.500000000000007 37.500000000000007 38.500000000000007 42.500000000000007 32.500000000000007 3.5000000000000004 1.5000000000000002 2.5000000000000004 14.500000000000002 13.500000000000002 9.5000000000000018 8.5000000000000018 7.5000000000000009 7.5000000000000009 4.5000000000000009 2014.5000000000002 1.5000000000000002 2.5000000000000004 5.5000000000000009 38.500000000000007 12.500000000000002 7.5000000000000009 37.500000000000007 36.500000000000007 5.5000000000000009 2.5000000000000004 34.500000000000007 33.500000000000007 3.5000000000000004 36.500000000000007 42.500000000000007 34.500000000000007 33.500000000000007 38.500000000000007 7.5000000000000009 9.5000000000000018 6.5000000000000009 38.500000000000007 11.500000000000002 2.5000000000000004 16.500000000000004 7.5000000000000009 7.5000000000000009 4.5000000000000009 37.500000000000007 38.500000000000007 3.5000000000000004 8.5000000000000018 5.5000000000000009 15.500000000000002 42.500000000000007 4.5000000000000009 3.5000000000000004 7.5000000000000009 1.5000000000000002 3.5000000000000004
decision_type=2 2 2 2 2 2 2 2 2 2 2 2 2 2 2 2 2 2 2 2 2 2 2 2 2 2 2 2 2 2 2 2 2 2 2 2 2 2 2 2 2 2 2 2 2 2 2 2 2 2 2 2 2 2 2 2 2 2 2 2 2 2 2
left_child=22 14 12 15 47 6 7 11 -7 -10 -11 -6 13 -3 -2 16 17 18 19 -4 21 23 40 -16 49 -24 29 28 -19 30 33 -22 -25 34 35 -27 38 -28 39 -33 41 -1 55 -34 -45 46 -26 -5 -48 50 -15 -38 -53 -43 -55 -23 -57 -54 -14 61 -61 -18 -49
right_child=1 2 3 4 5 8 -8 -9 9 10 -12 -13 58 24 20 -17 59 27 -20 -21 31 42 25 32 45 26 37 -29 -30 -31 -32 36 43 -35 -36 -37 51 -39 -40 -41 -42 53 -44 44 -46 -47 48 62 -50 -51 -52 52 57 54 -56 56 -58 -59 -60 60 -62 -63 -64
leaf_value=-2.4225279999999998 -2.1434879999999992 -1.5109760000000003 0.32332800000000078 -1.6726720000000015 0.82534399999999986 -3.0717439999999998 4.2051840000000018 -4.5198719999999994 5.1605120000000015 -1.2067840000000005 0.22809600000000074 4.5015680000000016 -1.2350079999999999 2.4598399999999998 -1.4828159999999997 5.4046079999999996 -1.383392 1.4116480000000011 -0.5922719999999998 3.8973119999999994 -1.0868479999999991 -2.5577600000000005 -1.9785600000000003 1.4307840000000001 -1.4967679999999988 -1.4357759999999986 -2.1281279999999998 4.8057119999999998 3.4014719999999983 2.5469440000000008 -3.9382400000000004 0.68998399999999982 -1.1478720000000011 1.4684479999999995 -5.234464 -0.27097600000000027 -3.2604159999999993 -1.2988160000000022 3.6707840000000007 -4.9701759999999995 -2.5566080000000007 -2.2920959999999995 -2.7000959999999994 0.50652800000000087 -1.0148480000000006 -2.310848 -0.21036800000000044 -1.6378239999999993 1.049152000000001 2.8262400000000003 -0.37856000000000023 3.711104000000002 -1.2626559999999998 -0.82969600000000276 -2.0611839999999995 -0.45913600000000088 -1.9772160000000014 -0.10892800000000023 -1.9950080000000001 -1.555072 0.59743999999999886 1.7475919999999996 -0.5919359999999998
leaf_weight=4652 16258 7959 16140 7931 120431 8051 16062 8134 8051 32168 64162 8077 8006 3148 8323 7994 814 17019 7920 7929 2556 1759 5109 8328 1255 7094 3975 7904 7237 999 1025 14054 1969 2036 986 20833 495 7961 1039 490 7988 4949 7594 10712 3973 677 4176 1988 1828 2397 2404 505 2025 8543 7160 3509 12264 4014 8055 3141 2404 1594 6093
leaf_count=4652 16258 7959 16140 7931 120431 8051 16062 8134 8051 32168 64162 8077 8006 3148 8323 7994 814 17019 7920 7929 2556 1759 5109 8328 1255 7094 3975 7904 7237 999 1025 14054 1969 2036 986 20833 495 7961 1039 490 7988 4949 7594 10712 3973 677 4176 1988 1828 2397 2404 505 2025 8543 7160 3509 12264 4014 8055 3141 2404 1594 6093
internal_value=0 0.000762806 0.0143626 0.023188 0.00741161 0.014191 0.0383282 0.0246286 -0.0185866 -0.00631496 -0.0209874 0.0387499 -0.0655103 -0.0186766 -0.0538578 0.0785551 0.0682974 0.0794049 0.0409347 0.0673639 -0.0413049 -0.0595883 -0.0767537 -0.0130053 0.033307 -0.0560281 -0.0467221 0.117644 0.0995831 -0.0285657 -0.0334547 0.00110323 0.00940488 -0.0281075 -0.0355091 -0.0297022 0.0116058 -0.0968076 0.0313603 0.0222576 -0.107866 -0.0953169 -0.121302 -0.0125942 -0.00122416 -0.018665 -0.00506482 -0.104788 0.0169438 0.0852597 0.0573507 -0.0320338 -0.019823 -0.0811515 -0.0670307 -0.104487 -0.0955112 -0.0362102 -0.134984 -0.0212144 -0.0462839 0.0362432 -0.0740208
internal_weight=0 501016 401149 361244 281148 265136 152704 136642 112432 104381 96330 128508 39905 23844 99867 80096 72102 64149 31989 24069 83609 58431 83310 33305 15885 50018 44909 32160 24256 32973 31974 25178 24982 30949 28913 27927 22622 11936 15583 14544 33292 25304 25126 16654 14685 7936 7259 16012 6004 7949 5552 7039 6544 20652 15703 17532 15773 6039 16061 7953 5545 2408 8081
internal_count=584326 501016 401149 361244 281148 265136 152704 136642 112432 104381 96330 128508 39905 23844 99867 80096 72102 64149 31989 24069 83609 58431 83310 33305 15885 50018 44909 32160 24256 32973 31974 25178 24982 30949 28913 27927 22622 11936 15583 14544 33292 25304 25126 16654 14685 7936 7259 16012 6004 7949 5552 7039 6544 20652 15703 17532 15773 6039 16061 7953 5545 2408 8081
is_linear=0
shrinkage=0.2


Tree=6
num_leaves=64
num_cat=0
split_feature=2 2 2 4 3 3 0 0 0 0 1 1 0 0 0 0 2 1 3 0 4 0 0 0 3 0 0 4 1 0 1 1 0 3 0 0 0 0 0 2 0 3 0 0 4 0 1 3 3 1 1 1 1 0 0 0 0 4 1 0 1 1 1
split_gain=10507.9 11617.2 4091.5 3994.73 2880.42 2492.98 2139.54 6140.95 1959.47 5740.68 1697.27 1890.69 1644.8 4027.76 1371.9 1298.14 1197.88 1101.78 1023.13 912.789 893.478 886.254 798.691 2071.83 776.291 772.843 2529.4 731.139 705.073 677.119 646.532 642.905 624.553 609.069 600.192 591.921 549.3 541.551 1559.18 508.18 495.084 449.798 446.458 1449.01 445.006 436.381 429.842 410.883 404.13 400.523 861.224 445.641 546.051 398.046 387.064 859.665 468.253 384.33 381.908 380.569 379.945 374.025 661.887
threshold=3.5000000000000004 8.5000000000000018 11.500000000000002 2014.5000000000002 4.5000000000000009 4.5000000000000009 7.5000000000000009 4.5000000000000009 7.5000000000000009 4.5000000000000009 5.5000000000000009 39.500000000000007 7.5000000000000009 4.5000000000000009 1.5000000000000002 1.5000000000000002 1.5000000000000002 5.5000000000000009 2.5000000000000004 1.5000000000000002 2015.5000000000002 2.5000000000000004 7.5000000000000009 4.5000000000000009 4.5000000000000009 4.5000000000000009 7.5000000000000009 2015.5000000000002 42.500000000000007 2.5000000000000004 5.5000000000000009 15.500000000000002 8.5000000000000018 1.0000000180025095e-35 1.5000000000000002 2.5000000000000004 1.5000000000000002 7.5000000000000009 4.5000000000000009 5.5000000000000009 8.5000000000000018 4.5000000000000009 7.5000000000000009 4.5000000000000009 2015.5000000000002 1.5000000000000002 15.500000000000002 4.5000000000000009 1.0000000180025095e-35 49.500000000000007 46.500000000000007 44.500000000000007 43.500000000000007 1.5000000000000002 3.5000000000000004 7.5000000000000009 1.5000000000000002 2013.5000000000002 7.5000000000000009 2.5000000000000004 5.5000000000000009 15.500000000000002 5.5000000000000009
decision_type=2 2 2 2 2 2 2 2 2 2 2 2 2 2 2 2 2 2 2 2 2 2 2 2 2 2 2 2 2 2 2 2 2 2 2 2 2 2 2 2 2 2 2 2 2 2 2 2 2 2 2 2 2 2 2 2 2 2 2 2 2 2 2
left_child=5 3 4 12 8 10 7 14 9 15 -1 16 13 19 60 58 54 -9 -4 -2 37 -17 23 36 39 34 -27 42 -13 -16 -15 -32 -10 -8 -18 -21 -20 38 53 -19 -14 -33 43 45 -11 -6 -41 -37 -31 50 51 52 -30 -7 56 -56 -12 -34 -3 -36 -5 62 -35
right_child=1 2 18 6 27 20 33 17 32 44 11 28 40 30 29 21 25 24 22 35 -22 -23 -24 -25 -26 26 -28 -29 49 48 31 41 57 61 59 47 -38 -39 -40 46 -42 -43 -44 -45 -46 -47 -48 -49 -50 -51 -52 -53 -54 -55 55 -57 -58 -59 -60 -61 -62 -63 -64
leaf_value=-2.1080063999999994 -0.44289280000000136 -1.7039615999999995 -2.058124799999999 -0.74822399999999978 -0.57313279999999911 -1.2183936000000017 0.6966336000000013 -1.3482239999999999 1.0797311999999992 -1.9449472000000001 -1.7973376000000003 -2.2950784 1.9095552000000013 -1.8462080000000001 4.5449087999999991 1.6482431999999989 -0.95424000000000153 -0.92305920000000086 -1.6475839999999999 2.4600831999999997 0.41588479999999922 -0.10791680000000099 -0.077708800000000633 -2.389529599999999 0.82621440000000068 -1.5861376000000007 0.19819519999999927 1.5847552000000009 -0.53374720000000053 0.51435519999999857 -0.021964799999999229 -1.5291647999999989 -1.0868544000000004 0.76399359999999994 1.7128063999999996 0.14753919999999995 0.1217152000000013 0.12418559999999985 -1.9379104000000007 0.75153919999999919 0.53657600000000094 -0.57585920000000079 1.1982591999999996 -1.2321216000000008 -1.320844799999999 1.6836640000000012 -0.36366079999999956 2.0133823999999989 2.5390656000000007 -0.19550720000000013 -2.4339072000000002 -0.3034752000000005 -2.4348928000000001 0.33040960000000014 -2.0999904000000003 -0.85064959999999845 -0.19320319999999996 0.069465600000000904 -0.87243840000000084 -0.0072575999999997982 0.90085119999999963 2.6610112000000017 4.6681343999999996
leaf_weight=10233 9824 1449 21516 1429 2543 2476 6336 4390 10445 18630 2395 6177 9757 2960 14715 10325 4644 11066 2806 9776 16180 20783 8509 8471 11389 13785 13781 16665 2059 4190 5873 14758 4180 3788 4547 14054 8398 7421 7496 3829 19406 5893 7425 7507 12455 7440 13404 5541 25129 2086 6127 4112 1993 7449 9725 7293 4893 16761 8970 9162 13361 26631 7515
leaf_count=10233 9824 1449 21516 1429 2543 2476 6336 4390 10445 18630 2395 6177 9757 2960 14715 10325 4644 11066 2806 9776 16180 20783 8509 8471 11389 13785 13781 16665 2059 4190 5873 14758 4180 3788 4547 14054 8398 7421 7496 3829 19406 5893 7425 7507 12455 7440 13404 5541 25129 2086 6127 4112 1993 7449 9725 7293 4893 16761 8970 9162 13361 26631 7515
internal_value=0 0.00526052 -0.0311274 0.0342645 -0.0142064 -0.05697 0.0550867 0.0392574 -0.0319976 -0.0500473 -0.0735755 -0.065034 0.0029371 -0.0139539 0.0815507 -0.00137685 -0.048835 -0.0171725 -0.0806749 0.0280418 -0.0152537 0.019073 -0.0555498 -0.07769 -0.00663578 -0.0298067 -0.0509769 0.0302764 -0.115431 0.0992571 -0.0697997 -0.0598554 0.00974166 0.0918615 0.00196015 0.0456997 -0.0211815 -0.0390816 -0.0583553 -0.0243934 0.0427341 -0.076459 0.0085553 -0.0088596 -0.115041 0.0410157 -0.00287657 0.0255935 0.0816174 -0.0936011 -0.105554 -0.0628607 -0.109935 -0.00628332 -0.0847499 -0.101298 -0.0459996 -0.0101595 -0.0624816 0.0230442 0.0287827 0.101457 0.13207
internal_weight=0 440292 195278 245014 145578 144034 147172 102902 103998 72612 103012 92779 97842 68679 58824 41527 70225 44078 49700 39195 41022 31108 28184 19675 39688 45919 27566 41580 22554 44034 29484 26524 31386 44270 18353 29371 11204 24842 17421 28299 29163 20651 24915 17490 31085 9983 17233 19595 29319 16377 14291 8164 4052 9925 24306 17018 7288 20941 10419 13709 14790 37934 11303
internal_count=584326 440292 195278 245014 145578 144034 147172 102902 103998 72612 103012 92779 97842 68679 58824 41527 70225 44078 49700 39195 41022 31108 28184 19675 39688 45919 27566 41580 22554 44034 29484 26524 31386 44270 18353 29371 11204 24842 17421 28299 29163 20651 24915 17490 31085 9983 17233 19595 29319 16377 14291 8164 4052 9925 24306 17018 7288 20941 10419 13709 14790 37934 11303
is_linear=0
shrinkage=0.2


Tree=7
num_leaves=64
num_cat=0
split_feature=1 1 1 1 1 1 1 1 1 1 1 1 1 1 1 1 1 1 1 1 1 2 3 1 1 1 1 0 0 0 1 2 0 0 3 1 0 0 0 2 0 1 4 3 3 3 4 2 2 0 2 2 0 0 0 0 0 0 0 4 0 0 4
split_gain=8071.12 8690.75 7291.89 6319.3 8957.22 4813.58 7053.66 5233.45 12475.7 8413.93 3518.54 5598.23 6246.32 4632.88 3658.96 4630.48 3446.86 3536.65 3153.39 2545.49 3472.9 1790.52 1552.06 1396.49 1292.93 1127.24 1593.69 628.723 1046.06 894.528 620.937 493.594 477.661 1254.33 402.34 382.301 375.79 1028.78 373.563 350.278 332.028 325.937 320.51 302.342 290.628 274.102 250.877 245.521 344.437 244.013 238.617 231.645 228.889 323.279 225.831 561.374 223.034 731.626 206.131 196.91 194.648 276.348 190.958
threshold=5.5000000000000009 15.500000000000002 17.500000000000004 39.500000000000007 41.500000000000007 18.500000000000004 21.500000000000004 22.500000000000004 23.500000000000004 25.500000000000004 49.500000000000007 46.500000000000007 44.500000000000007 43.500000000000007 47.500000000000007 48.500000000000007 3.5000000000000004 1.5000000000000002 14.500000000000002 13.500000000000002 12.500000000000002 1.5000000000000002 4.5000000000000009 2.5000000000000004 45.500000000000007 7.5000000000000009 8.5000000000000018 3.5000000000000004 7.5000000000000009 1.5000000000000002 40.500000000000007 3.5000000000000004 7.5000000000000009 4.5000000000000009 3.5000000000000004 16.500000000000004 4.5000000000000009 7.5000000000000009 8.5000000000000018 9.5000000000000018 1.5000000000000002 4.5000000000000009 2013.5000000000002 4.5000000000000009 4.5000000000000009 1.0000000180025095e-35 2015.5000000000002 3.5000000000000004 9.5000000000000018 4.5000000000000009 2.5000000000000004 2.5000000000000004 7.5000000000000009 4.5000000000000009 7.5000000000000009 4.5000000000000009 7.5000000000000009 4.5000000000000009 3.5000000000000004 2013.5000000000002 3.5000000000000004 7.5000000000000009 2015.5000000000002
decision_type=2 2 2 2 2 2 2 2 2 2 2 2 2 2 2 2 2 2 2 2 2 2 2 2 2 2 2 2 2 2 2 2 2 2 2 2 2 2 2 2 2 2 2 2 2 2 2 2 2 2 2 2 2 2 2 2 2 2 2 2 2 2 2
left_child=16 18 35 5 30 45 27 56 -9 -10 11 12 13 -6 -13 -16 17 -1 19 20 21 60 25 34 -14 42 -27 29 49 -7 -5 54 33 -24 47 -3 40 -38 -30 -33 -25 51 -23 58 -31 -4 -37 -19 -49 -29 -20 -18 53 -53 55 -12 57 -8 -21 -42 -2 -62 -45
right_child=1 2 3 4 10 6 7 8 9 -11 31 14 24 -15 15 -17 41 23 50 43 -22 22 32 36 -26 26 -28 28 38 44 -32 39 -34 -35 -36 46 37 -39 -40 -41 59 -43 -44 62 -46 -47 -48 48 -50 -51 -52 52 -54 -55 -56 -57 -58 -59 -60 -61 61 -63 -64
leaf_value=-1.4122966400000001 -0.15339456000000098 -1.7263142400000022 1.1041011199999999 -1.2664883200000006 0.031093760000000262 -1.5271155200000017 5.5283513599999994 -3.1471052799999999 3.27689472 0.12582656000000014 0.93626624000000058 -2.3112576000000007 3.6880601599999991 -1.753136640000001 0.58757375999999939 -1.6122070400000013 -2.0245171200000001 -0.5673267199999984 1.2295295999999993 -0.3865974399999999 3.1776614400000001 -0.9302054399999975 2.6995244799999982 -0.89050112000000048 0.58763967999999955 2.11719904 0.30652415999999794 -1.088099840000001 0.050834559999999133 -0.27286143999999979 -2.382686720000001 2.8961305599999991 2.8231257600000021 -0.017571839999999384 1.7683609599999999 -1.2994982400000012 -1.6909363199999996 0.0508697600000005 -0.93708800000000148 0.92575039999999909 -0.58644031999999979 -1.7715948800000001 -0.11975424000000033 -0.63215423999999987 0.8944665600000008 3.5939123200000043 -0.69577984000000015 1.1771263999999988 -0.34805503999999987 -1.7913958399999999 4.128013440000001 -0.7689363199999999 -0.51954943999999947 -1.66599936 1.3722982400000001 -1.870133759999999 5.969352960000001 0.87003007999999937 -1.1916377600000005 0.65438848000000016 -1.3508083200000016 -0.40557056000000247 0.95665296000000033
leaf_weight=11614 2045 11623 1678 11706 23298 3518 4672 11663 23451 163999 1167 11702 11675 11647 11701 11546 1892 1664 1899 2524 11582 3020 8589 1183 11701 7532 30614 3563 3482 4914 11736 5839 6439 6460 4962 6992 3484 3491 7058 2962 710 11716 12227 1974 1994 10024 4697 3314 1679 10528 9756 3948 2951 2963 878 885 3551 3502 5788 2748 2789 2077 1340
leaf_count=11614 2045 11623 1678 11706 23298 3518 4672 11663 23451 163999 1167 11702 11675 11647 11701 11546 1892 1664 1899 2524 11582 3020 8589 1183 11701 7532 30614 3563 3482 4914 11736 5839 6439 6460 4962 6992 3484 3491 7058 2962 710 11716 12227 1974 1994 10024 4697 3314 1679 10528 9756 3948 2951 2963 878 885 3551 3502 5788 2748 2789 2077 1340
internal_value=0 -0.00271626 -0.0164409 -0.00987916 -0.0461173 0.00818781 0.00222035 0.0160357 0.00838497 0.0208766 -0.0211533 -0.0341426 0.00377856 -0.049742 -0.0974361 -0.0514745 -0.0811355 -0.0412023 0.0454387 0.0344731 0.045465 0.0309381 0.0399335 0.00382049 0.0838096 0.0216492 0.0400268 -0.0808438 -0.0982863 -0.0395611 -0.157892 0.0820509 0.085328 0.0657178 0.0528638 -0.125061 -0.0451831 -0.0745177 -0.0505153 0.105723 -0.000943259 -0.140391 -0.0242873 -0.0537435 0.00216764 0.133497 -0.0993145 0.0205978 0.0428308 -0.133957 0.14414 -0.11661 -0.104104 -0.124094 0.0106993 -0.0253926 0.145872 0.127356 -0.0741051 0.0302173 -0.0664136 -0.0881875 -0.00246626
internal_weight=0 526007 409352 386040 128443 257597 245895 210838 199113 187450 105001 93270 58321 34945 34949 23247 58319 34849 116655 105000 93374 81792 74881 23235 23376 53393 38146 35057 24631 10426 23442 11731 21488 15049 11619 23312 11616 6975 10540 8801 4641 23470 15247 11626 6908 11702 11689 6657 4993 14091 11655 11754 9862 6911 2930 2052 11725 8174 8312 3458 6911 4866 3314
internal_count=584326 526007 409352 386040 128443 257597 245895 210838 199113 187450 105001 93270 58321 34945 34949 23247 58319 34849 116655 105000 93374 81792 74881 23235 23376 53393 38146 35057 24631 10426 23442 11731 21488 15049 11619 23312 11616 6975 10540 8801 4641 23470 15247 11626 6908 11702 11689 6657 4993 14091 11655 11754 9862 6911 2930 2052 11725 8174 8312 3458 6911 4866 3314
is_linear=0
shrinkage=0.2


Tree=8
num_leaves=64
num_cat=0
split_feature=4 2 2 3 3 0 0 0 0 0 0 2 2 0 0 0 0 0 2 1 0 0 0 4 3 0 1 2 0 0 4 0 0 2 2 1 2 0 0 0 0 0 2 1 1 1 0 2 2 2 1 4 2 4 0 3 3 1 0 1 1 4 2
split_gain=8759.57 5144.88 4972.02 3953.6 3518.21 2966.79 8433.43 2949.21 8211.07 2149.81 1765.14 1414.27 1453.18 1257.51 1035.01 1028.57 922.571 915.293 761.572 724.264 694.172 2132.03 733.099 612.433 610.156 572.282 545.368 505.222 503.231 1090.65 484.103 471.998 1511.3 453.003 450.799 435.746 431.811 419.37 399.337 385.134 942.67 630.947 376.857 358.537 757.446 360.077 327.457 321.435 288.035 284.703 282.001 281.238 275.126 249.759 248.807 241.323 238.132 234.102 230.202 229.335 285.229 216.106 210.259
threshold=2015.5000000000002 2.5000000000000004 11.500000000000002 1.0000000180025095e-35 1.0000000180025095e-35 7.5000000000000009 4.5000000000000009 7.5000000000000009 4.5000000000000009 1.5000000000000002 1.5000000000000002 2.5000000000000004 9.5000000000000018 3.5000000000000004 2.5000000000000004 8.5000000000000018 6.5000000000000009 8.5000000000000018 4.5000000000000009 5.5000000000000009 7.5000000000000009 4.5000000000000009 1.5000000000000002 2013.5000000000002 4.5000000000000009 2.5000000000000004 7.5000000000000009 7.5000000000000009 7.5000000000000009 4.5000000000000009 2013.5000000000002 7.5000000000000009 4.5000000000000009 1.5000000000000002 11.500000000000002 7.5000000000000009 2.5000000000000004 8.5000000000000018 1.5000000000000002 3.5000000000000004 7.5000000000000009 1.5000000000000002 2.5000000000000004 39.500000000000007 41.500000000000007 5.5000000000000009 4.5000000000000009 11.500000000000002 11.500000000000002 4.5000000000000009 7.5000000000000009 2013.5000000000002 7.5000000000000009 2013.5000000000002 1.5000000000000002 5.5000000000000009 4.5000000000000009 7.5000000000000009 2.5000000000000004 15.500000000000002 5.5000000000000009 2013.5000000000002 4.5000000000000009
decision_type=2 2 2 2 2 2 2 2 2 2 2 2 2 2 2 2 2 2 2 2 2 2 2 2 2 2 2 2 2 2 2 2 2 2 2 2 2 2 2 2 2 2 2 2 2 2 2 2 2 2 2 2 2 2 2 2 2 2 2 2 2 2 2
left_child=1 20 3 28 31 6 10 8 9 35 26 -10 18 23 59 51 19 -9 -13 -8 21 22 -1 -12 -21 -24 -5 -20 29 54 57 32 38 -19 -14 -6 -16 -22 -2 41 46 -4 -37 45 -45 -38 -41 49 -44 -35 -15 -7 -51 -28 -3 62 -18 -17 -56 60 -11 -30 -32
right_child=4 2 39 5 7 15 16 17 11 14 13 12 34 50 36 30 56 33 27 24 37 -23 25 -25 -26 -27 53 -29 61 -31 55 -33 -34 47 -36 42 43 -39 -40 40 -42 -43 48 44 -46 -47 -48 -49 -50 52 -52 -53 -54 -55 58 -57 -58 -59 -60 -61 -62 -63 -64
leaf_value=-1.6477649920000006 -1.0738853120000003 -1.3784700160000014 -1.9894090240000002 -1.0122159359999985 -0.68457433600000006 0.71797772800000037 -1.1621098239999996 2.4125905920000008 -1.5693061120000011 0.8782195199999997 0.56040140799999849 -0.72661811199999993 -0.7998010879999996 -0.56489286400000083 0.1317729280000009 -0.76594854399999979 -1.4928081919999983 -0.35165491200000076 0.58317260799999959 -0.80960051199999872 -0.1497555520000006 -2.0648965120000002 0.19291852800000131 1.8133921279999996 -0.16523827199999916 -0.93227059199999907 -0.78741455999999987 -0.35662387200000012 -1.1643043839999991 -1.6920360959999989 -0.21967091200000013 -0.081710911999999081 -1.5599907840000016 0.56606716800000001 -1.7085777920000014 -0.83356211199999997 0.13102444799999979 -1.0139463680000007 0.13607462400000117 -1.4122169920000009 -1.0048081919999987 -0.40539955200000011 0.66538214399999873 -1.2483445760000009 1.2656929279999987 2.3911486080000004 -2.3266590719999996 -0.0279224319999976 -0.93606848000000165 2.5512175360000016 0.20945087999999856 1.9055610880000005 1.1861703680000006 0.063208447999998904 0.069180287999999743 1.6484103680000004 -1.0221470719999985 -0.063511552000001359 -0.96378406400000005 2.8177966080000001 5.0700718080000007 -0.30164089599999927 0.63907660799999921
leaf_weight=5621 3363 3805 2978 3155 2807 7500 4513 20197 9701 2032 15043 10168 9904 3164 6363 2149 15055 3355 15028 26958 5658 17003 5682 30041 13776 11264 6474 10166 3675 11310 5464 9987 9975 9822 5161 2795 3372 11337 10001 3008 8976 5878 13120 1337 6096 22928 8983 3470 1485 10112 19405 15054 13400 13058 3796 5056 7629 13019 7553 13958 3996 7706 19481
leaf_count=5621 3363 3805 2978 3155 2807 7500 4513 20197 9701 2032 15043 10168 9904 3164 6363 2149 15055 3355 15028 26958 5658 17003 5682 30041 13776 11264 6474 10166 3675 11310 5464 9987 9975 9822 5161 2795 3372 11337 10001 3008 8976 5878 13120 1337 6096 22928 8983 3470 1485 10112 19405 15054 13400 13058 3796 5056 7629 13019 7553 13958 3996 7706 19481
internal_value=0 -0.0311395 -0.0204974 -0.0117448 0.018831 -0.00172295 -0.0167152 0.0288221 0.012924 0.0547798 0.0233132 -0.0429559 -0.0294821 0.0395055 0.0737586 0.0333045 -0.0699559 0.0657961 -0.00730046 -0.0534184 -0.0863737 -0.100912 -0.0605575 0.0587971 -0.0449661 -0.0397299 -0.0249441 0.011326 -0.0715701 -0.0867112 0.0158678 -0.0413389 -0.0569096 0.048294 -0.0814962 -0.001622 0.055188 -0.0524758 -0.0128811 -0.0979007 -0.112713 -0.0627366 0.0101466 0.0642039 0.02528 0.0751771 -0.14944 0.054712 0.0230546 0.0607428 0.000938353 0.068191 0.0727104 -0.0124382 -0.0515526 0.0305953 -0.102904 -0.0132214 -0.0366087 0.11097 0.143822 -0.036295 0.022478
internal_weight=0 350227 293662 263839 234099 225994 158271 200773 140417 80289 90340 60128 50427 67653 60082 67723 67931 60356 35362 45247 56565 39570 22567 45084 40734 16946 22687 25194 37845 26464 45169 33326 23339 40159 15065 20207 40096 16995 13364 29823 20967 8856 17400 33733 7433 26300 11991 36804 14605 33334 22569 22554 23512 19532 15154 30001 22684 15168 11349 19986 6028 11381 24945
internal_count=584326 350227 293662 263839 234099 225994 158271 200773 140417 80289 90340 60128 50427 67653 60082 67723 67931 60356 35362 45247 56565 39570 22567 45084 40734 16946 22687 25194 37845 26464 45169 33326 23339 40159 15065 20207 40096 16995 13364 29823 20967 8856 17400 33733 7433 26300 11991 36804 14605 33334 22569 22554 23512 19532 15154 30001 22684 15168 11349 19986 6028 11381 24945
is_linear=0
shrinkage=0.2


Tree=9
num_leaves=64
num_cat=0
split_feature=3 2 2 2 2 2 4 4 4 2 2 1 1 1 1 1 1 1 1 1 1 0 0 1 1 0 0 0 1 1 4 1 1 1 1 1 4 1 0 1 1 0 1 0 0 1 1 1 1 1 1 1 1 1 1 1 1 1 1 0 1 1 1
split_gain=7364.32 4929.02 8213.19 1973.27 1903.09 1717.88 1599.43 1472.37 1443.87 1413.99 985.63 947.5 2344.12 1060.53 1082.42 900.97 831.417 804.208 788.592 769.489 723.849 676.043 1743.31 650.695 814.974 650.299 1560.34 630.899 558.804 595.518 551.784 549.305 580.49 711.331 491.662 514.235 490.652 489.863 481.398 438.397 520.405 437.61 425.048 416.816 1131.97 412.454 777.835 396.644 1818.91 811.756 563.795 376.622 417.034 417.912 353.908 750.927 375.519 348.527 343.053 331.217 326.475 863.117 311.559
threshold=4.5000000000000009 4.5000000000000009 8.5000000000000018 11.500000000000002 2.5000000000000004 8.5000000000000018 2014.5000000000002 2013.5000000000002 2014.5000000000002 4.5000000000000009 1.5000000000000002 5.5000000000000009 15.500000000000002 17.500000000000004 18.500000000000004 3.5000000000000004 7.5000000000000009 1.5000000000000002 15.500000000000002 49.500000000000007 17.500000000000004 7.5000000000000009 4.5000000000000009 39.500000000000007 5.5000000000000009 3.5000000000000004 7.5000000000000009 1.5000000000000002 5.5000000000000009 38.500000000000007 2013.5000000000002 18.500000000000004 21.500000000000004 22.500000000000004 5.5000000000000009 38.500000000000007 2013.5000000000002 5.5000000000000009 6.5000000000000009 37.500000000000007 36.500000000000007 1.5000000000000002 39.500000000000007 7.5000000000000009 4.5000000000000009 5.5000000000000009 15.500000000000002 27.500000000000004 29.500000000000004 15.500000000000002 32.500000000000007 9.5000000000000018 8.5000000000000018 7.5000000000000009 15.500000000000002 7.5000000000000009 16.500000000000004 42.500000000000007 42.500000000000007 3.5000000000000004 25.500000000000004 24.500000000000004 17.500000000000004
decision_type=2 2 2 2 2 2 2 2 2 2 2 2 2 2 2 2 2 2 2 2 2 2 2 2 2 2 2 2 2 2 2 2 2 2 2 2 2 2 2 2 2 2 2 2 2 2 2 2 2 2 2 2 2 2 2 2 2 2 2 2 2 2 2
left_child=1 6 7 8 37 9 23 45 28 36 -8 15 51 -14 -15 17 -7 -9 -18 -16 -20 22 41 24 -1 27 38 -10 -4 39 -11 -22 -33 -34 -5 43 -6 -2 -27 40 -30 -12 -39 44 -36 -3 -47 49 -49 -26 -50 52 53 -13 55 -32 -56 -44 -31 -43 61 -51 -48
right_child=4 2 3 34 5 16 10 11 25 30 21 12 13 14 19 -17 18 -19 20 -21 31 -23 -24 -25 47 26 -28 -29 29 58 54 32 33 -35 35 -37 -38 42 -40 -41 -42 59 57 -45 -46 46 62 48 50 60 -52 -53 -54 -55 56 -57 -58 -59 -60 -61 -62 -63 -64
leaf_value=-1.4869189375999987 -1.1435432704000008 -0.88962392320000072 -1.2127588351999998 -1.6220659456000008 -0.59869020160000019 -0.57179735040000002 -1.0641674495999993 -0.58977301760000034 -0.4602429567999991 0.61749642239999791 -0.73712826880000015 0.6838122496000012 -0.65056143359999941 4.3363148544000012 0.48153492479999971 -0.70333406720000013 1.3738662144000005 0.96624007680000124 -1.0222817280000016 2.6580363264 3.5983796224000004 0.11269217599999877 -1.0559876095999996 -1.4737425536000019 -0.4061425536000009 -0.57031720960000176 0.38064957440000102 1.0429022784000013 -0.58328476159999887 -1.4637009599999999 0.72058063360000058 -0.83983682559999984 4.6752914943999997 0.22093815039999853 -0.59678620159999984 -1.5514348800000002 0.52457579520000053 -0.0034161376000000133 -1.3108575744000008 1.7598078464000011 -3.4459803392000015 0.56426995200000007 -1.325565696 -0.3731744895999981 -1.7706546176000004 0.81314186239999775 -1.2385605376000002 2.249462899200001 -2.0507476095999988 -1.4512369664000007 -0.65338787839999957 2.3081177344000028 -0.12124881919999667 3.3375337087999997 -0.57566581760000024 4.1358106624000017 2.0002491263999986 -0.47857448959999971 -0.95276968960000097 -0.4461607679999986 -3.8730832895999998 1.1926087040000006 -0.3788441343999992
leaf_weight=5424 2641 2852 4165 3547 5759 7828 20784 2209 6307 11255 6156 4479 4449 2284 69766 4482 8816 4506 2242 2269 1121 18410 18493 12049 10974 18661 18808 12458 25730 3307 6302 3355 1144 31166 9335 8602 22235 18156 6217 831 823 12321 1606 7054 7070 5591 1128 2228 3302 9928 7719 13479 2225 2249 901 7226 30833 4335 6691 6184 2229 1086 18544
leaf_count=5424 2641 2852 4165 3547 5759 7828 20784 2209 6307 11255 6156 4479 4449 2284 69766 4482 8816 4506 2242 2269 1121 18410 18493 12049 10974 18661 18808 12458 25730 3307 6302 3355 1144 31166 9335 8602 22235 18156 6217 831 823 12321 1606 7054 7070 5591 1128 2228 3302 9928 7719 13479 2225 2249 901 7226 30833 4335 6691 6184 2229 1086 18544
internal_value=0 -0.0251044 -0.00988637 -0.0442449 0.0245979 0.0339262 -0.0561496 0.0242464 -0.0303207 0.0518965 -0.0385008 0.0344874 0.0405974 0.0243412 0.0300259 -0.0206769 0.00663459 0.0256001 0.0165315 0.025714 0.0043089 -0.02577 -0.0394602 -0.0825886 -0.0710089 -0.0110863 -0.024468 0.0200331 -0.059215 -0.0514373 0.0701059 0.0110517 0.00669454 0.0149346 -0.0848891 -0.0770205 0.0151081 -0.0242841 -0.0573363 -0.0361406 -0.040638 -0.00462134 -0.0152855 -0.0616138 -0.0791068 -0.0166719 -0.00850079 -0.0604816 -0.0325673 -0.0757219 -0.0659274 0.0976414 0.0656525 0.0904747 0.0799687 0.107146 0.068355 -0.0617065 -0.0932492 0.0107187 -0.109073 -0.0947795 -0.0272316
internal_weight=0 417405 280118 139606 166921 140183 137287 140512 103998 84511 82348 112397 101200 78768 74319 11197 55672 6715 47844 72035 39028 61564 43154 54939 42890 62451 43686 18765 41547 37382 56517 36786 35665 32310 35608 32061 27994 26738 24878 27384 26553 24661 24097 23459 16405 28115 25263 37466 13249 24217 11021 22432 8953 6728 45262 13528 31734 5941 9998 18505 13243 11014 19672
internal_count=584326 417405 280118 139606 166921 140183 137287 140512 103998 84511 82348 112397 101200 78768 74319 11197 55672 6715 47844 72035 39028 61564 43154 54939 42890 62451 43686 18765 41547 37382 56517 36786 35665 32310 35608 32061 27994 26738 24878 27384 26553 24661 24097 23459 16405 28115 25263 37466 13249 24217 11021 22432 8953 6728 45262 13528 31734 5941 9998 18505 13243 11014 19672
is_linear=0
shrinkage=0.2


Tree=10
num_leaves=64
num_cat=0
split_feature=3 4 1 1 1 1 1 0 0 1 1 1 1 0 1 1 1 1 0 0 0 0 1 1 1 0 1 1 1 1 2 0 2 2 1 0 2 1 1 1 1 2 2 0 1 1 1 2 1 2 1 0 2 1 1 1 1 1 1 1 1 1 1
split_gain=6162.48 3369.52 2609.3 3362.7 2486.45 4077.93 2868.8 2100.36 6221.61 1987.09 2823.77 1674.02 1627.99 1493.81 1404.72 2248.68 1318.28 2629.25 1186.2 2889.53 1298.55 1148.02 1116.02 1059.6 1128.33 1015.53 1004.6 891.028 824.759 1178.08 734.564 724 700.154 592.502 526.553 499.343 446.845 403.907 936.159 446.958 388.532 383.101 376.267 368.584 363.456 352.293 387.536 352.079 341.218 310.62 310.105 308.393 293.591 277.666 275.503 269.529 253.897 762.218 293.535 279.573 257.982 246.915 395.582
threshold=2.5000000000000004 2015.5000000000002 5.5000000000000009 38.500000000000007 37.500000000000007 36.500000000000007 35.500000000000007 7.5000000000000009 4.5000000000000009 15.500000000000002 17.500000000000004 42.500000000000007 18.500000000000004 1.5000000000000002 46.500000000000007 49.500000000000007 44.500000000000007 43.500000000000007 3.5000000000000004 7.5000000000000009 1.5000000000000002 6.5000000000000009 14.500000000000002 3.5000000000000004 1.5000000000000002 2.5000000000000004 13.500000000000002 39.500000000000007 47.500000000000007 48.500000000000007 2.5000000000000004 8.5000000000000018 9.5000000000000018 3.5000000000000004 2.5000000000000004 4.5000000000000009 4.5000000000000009 39.500000000000007 42.500000000000007 5.5000000000000009 45.500000000000007 1.5000000000000002 1.5000000000000002 8.5000000000000018 49.500000000000007 15.500000000000002 5.5000000000000009 11.500000000000002 15.500000000000002 11.500000000000002 3.5000000000000004 6.5000000000000009 2.5000000000000004 5.5000000000000009 3.5000000000000004 7.5000000000000009 39.500000000000007 41.500000000000007 7.5000000000000009 15.500000000000002 49.500000000000007 5.5000000000000009 15.500000000000002
decision_type=2 2 2 2 2 2 2 2 2 2 2 2 2 2 2 2 2 2 2 2 2 2 2 2 2 2 2 2 2 2 2 2 2 2 2 2 2 2 2 2 2 2 2 2 2 2 2 2 2 2 2 2 2 2 2 2 2 2 2 2 2 2 2
left_child=2 7 23 4 5 6 9 8 13 22 -11 27 -12 55 16 28 17 52 20 21 -3 35 26 24 -1 -15 -4 -5 -16 -30 -10 -9 36 -18 -26 -20 -32 39 -39 50 -35 -37 -33 -21 -40 46 54 56 -41 53 -27 -38 -13 -43 -22 -2 58 -58 -44 -60 -59 -45 -63
right_child=1 18 3 11 -6 -7 -8 31 30 10 12 14 -14 25 15 -17 33 -19 19 43 45 -23 -24 -25 34 37 -28 -29 29 -31 32 42 -34 40 -36 41 51 38 44 48 -42 49 47 61 -46 -47 -48 -49 -50 -51 -52 -53 -54 -55 -56 -57 57 60 59 -61 -62 62 -64
leaf_value=-1.1753921971199996 -0.86966180351999967 0.14742838015999951 0.21954968832000007 -0.41873401855999931 2.4383194803200001 -2.9392110156799989 2.5380690995199986 1.1141764543999997 -1.3228444876800005 -1.2205735372800022 1.5970192767999998 -0.75881326527999926 -0.55855262623999946 1.6181446387200005 -1.82302022656 0.51657128192000101 -0.62588918527999915 -1.5035793932800006 0.84307286015999883 2.261075704320004 1.5504252416000002 -0.85642016767999829 1.7708796083199987 -1.1888060620800005 0.25851634944000068 0.042200281599999917 -0.84929474623999968 -1.3042038630399997 -0.22283766272000066 -1.4396431385599997 -0.93714682368000135 -0.69382073600000005 -1.1506546124800003 2.6123062732799998 -0.64133011712000076 -1.0567073462400012 -0.21577645568000037 -1.3768765183999989 -0.066146670080000552 1.1374987827200016 0.33098714111999783 -0.54337299968000041 -0.16305644287999999 -0.10436909568000062 2.0730242969599986 2.1026470963199984 3.912250110720001 -0.71569741568000189 0.43965231231999979 -0.84292800767999987 -0.87059108352000081 -0.79724140288000178 0.72831542272000149 0.21244255232000031 -0.15467027456000154 -0.38796144511999986 -1.6738736409599995 0.050433771520000906 1.4536614752000021 0.66006435295999999 2.197265369599998 2.0534191859200002 1.0332145523199998
leaf_weight=5012 2799 13355 40018 5075 5017 5011 5056 20000 9748 10071 5020 780 85230 19970 4993 5034 2486 5051 13406 13477 1634 13561 5055 10101 4944 2432 4970 14988 5005 4887 9861 3454 14926 3775 4974 2300 16927 2437 5621 7871 3893 2245 4673 2694 793 18785 5365 3197 19180 2427 1583 8427 4207 19794 1113 17163 1366 5295 5341 15986 684 5276 18741
leaf_count=5012 2799 13355 40018 5075 5017 5011 5056 20000 9748 10071 5020 780 85230 19970 4993 5034 2486 5051 13406 13477 1634 13561 5055 10101 4944 2432 4970 14988 5005 4887 9861 3454 14926 3775 4974 2300 16927 2437 5621 7871 3893 2245 4673 2694 793 18785 5365 3197 19180 2427 1583 8427 4207 19794 1113 17163 1366 5295 5341 15986 684 5276 18741
internal_value=0 0.00782001 -0.0336716 -0.0268702 -0.01214 -0.0164802 -0.0107486 -0.00864427 -0.022085 -0.015736 -0.0319762 -0.0673577 -0.020757 0.0144565 -0.0437349 -0.0814168 -0.00652542 -0.0579408 0.0323335 0.0200117 0.0610653 -0.0103168 0.0168082 -0.0949423 -0.0610047 0.0302552 0.00677871 -0.114541 -0.120499 -0.0868908 -0.0708139 0.0226501 -0.0610159 0.0442436 -0.0218306 0.0066554 -0.0455898 0.0118132 -0.0258394 0.0225621 0.0717748 -0.00910684 0.0070947 0.0605753 0.0141781 0.0863786 0.121329 0.0130738 0.0318172 -0.00174018 -0.0396173 -0.0314936 0.0449665 0.00571549 0.0597758 -0.0329067 0.019167 -0.0136066 0.0284499 0.0384052 0.0171149 0.0469111 0.0533548
internal_weight=0 333907 250653 225622 165448 160431 155420 199734 139738 150364 100321 60174 90250 79849 40111 19919 20192 10038 134173 93921 40252 53733 50043 25031 14930 59887 44988 20063 14885 9892 59889 59996 50141 10154 9918 40172 35215 39917 8851 31066 7668 26766 39996 40188 6414 26897 8112 36542 27051 24466 4015 25354 4987 22039 2747 19962 33345 7345 26000 21327 5979 26711 24017
internal_count=584560 333907 250653 225622 165448 160431 155420 199734 139738 150364 100321 60174 90250 79849 40111 19919 20192 10038 134173 93921 40252 53733 50043 25031 14930 59887 44988 20063 14885 9892 59889 59996 50141 10154 9918 40172 35215 39917 8851 31066 7668 26766 39996 40188 6414 26897 8112 36542 27051 24466 4015 25354 4987 22039 2747 19962 33345 7345 26000 21327 5979 26711 24017
is_linear=0
shrinkage=0.2


Tree=11
num_leaves=64
num_cat=0
split_feature=3 2 2 4 0 0 0 0 4 0 0 1 1 1 1 1 1 1 0 0 1 4 1 1 1 0 0 1 1 1 1 1 1 1 1 1 0 0 1 1 1 0 0 1 1 1 1 1 1 1 1 1 1 1 1 0 1 1 1 1 1 1 0
split_gain=5014.49 4221.5 3664.66 2970.73 2216.36 6936.66 1370.7 1148.24 1126.94 1084.73 921.865 826.839 1117 1435.13 1533.14 1088.21 891.552 1347.04 741.3 1959.02 604.533 592.756 589.299 574.482 588.978 522.317 1267.95 506.12 644.464 1260.51 577.034 479.99 475.534 627.879 458.486 558.261 448.147 428.224 376.136 744.611 406.965 369.397 351.95 325.858 328.42 304.048 1328.27 569.278 526.375 458.122 496.127 300.908 283.405 280.463 289.573 267.445 258.062 258.016 250.088 491.069 486.856 232.801 219.67
threshold=1.0000000180025095e-35 1.5000000000000002 11.500000000000002 2013.5000000000002 7.5000000000000009 4.5000000000000009 1.5000000000000002 2.5000000000000004 2013.5000000000002 6.5000000000000009 8.5000000000000018 5.5000000000000009 36.500000000000007 34.500000000000007 33.500000000000007 32.500000000000007 37.500000000000007 38.500000000000007 7.5000000000000009 4.5000000000000009 36.500000000000007 2013.5000000000002 42.500000000000007 5.5000000000000009 36.500000000000007 7.5000000000000009 4.5000000000000009 49.500000000000007 39.500000000000007 41.500000000000007 37.500000000000007 15.500000000000002 5.5000000000000009 39.500000000000007 3.5000000000000004 1.5000000000000002 8.5000000000000018 1.5000000000000002 15.500000000000002 5.5000000000000009 3.5000000000000004 1.5000000000000002 2.5000000000000004 7.5000000000000009 39.500000000000007 27.500000000000004 29.500000000000004 25.500000000000004 30.500000000000004 24.500000000000004 15.500000000000002 49.500000000000007 3.5000000000000004 7.5000000000000009 36.500000000000007 2.5000000000000004 6.5000000000000009 17.500000000000004 34.500000000000007 33.500000000000007 36.500000000000007 17.500000000000004 6.5000000000000009
decision_type=2 2 2 2 2 2 2 2 2 2 2 2 2 2 2 2 2 2 2 2 2 2 2 2 2 2 2 2 2 2 2 2 2 2 2 2 2 2 2 2 2 2 2 2 2 2 2 2 2 2 2 2 2 2 2 2 2 2 2 2 2 2 2
left_child=8 32 3 11 5 6 43 31 -1 23 38 34 13 14 15 -13 -14 -18 19 37 -9 -4 -19 52 -25 26 41 28 30 -30 -12 -8 -2 45 35 -3 -20 -10 39 40 -6 -23 -39 -5 -45 47 -47 49 -48 50 -34 57 -7 -11 -55 -43 -27 -40 59 -50 -60 -52 -21
right_child=1 2 21 4 10 9 7 20 18 53 27 12 16 -15 -16 -17 17 22 36 62 -22 25 -24 24 -26 56 -28 -29 29 -31 -32 -33 33 -35 -36 -37 -38 42 51 -41 -42 55 -44 44 -46 46 48 -49 58 -51 61 -53 -54 54 -56 -57 -58 -59 60 -61 -62 -63 -64
leaf_value=-1.2476025806720004 -1.172286381056 -1.0347811635199999 -1.2879412602879996 -0.41045118937600195 0.91612814464000403 -0.35262017510400057 2.3757043047680013 0.95004762265600107 -0.80913440204799947 -0.93966941644800106 0.62400626841599804 -0.1625031566719983 -3.0971136166400011 2.177274654528 -4.6245417785279983 2.7954012877120018 2.3024487644159999 -1.0117396639999989 0.50748643097600166 -0.95717589523200042 0.050181229055999671 -0.92702487616000084 -0.43953808665600108 0.02323661465600111 -0.44991810406399968 -0.76768507238400052 -1.2067584134079987 2.4343481986559965 -1.4281629346559996 0.30711648345600084 2.4389068708479984 1.8347467765759988 -0.19545545305600173 -1.0469099944319986 -1.0753582909440003 0.0028702202880005246 -0.46723967990399978 0.52191021760000067 -0.30967061376000232 2.9961329958400031 -0.50178148518400012 0.80753027097599961 -0.39257636454399858 0.40768661100800119 -0.34472992281599918 2.4953772650880008 -2.3921243442879985 -3.0280332861439989 -0.25166119443199902 1.6044302072960002 -1.3350681038720009 4.2651461903360035 -0.85245483622399976 -0.58108085267200094 -0.87818495078400083 -0.31809002086399973 0.15007119385600021 1.6088605634560027 1.1131008604160015 -3.5992887869440011 -0.86078785638400035 -0.87063286054400069 -1.4312686315519985
leaf_weight=16662 4289 1638 8326 4671 1995 3954 9989 47885 6765 4651 48950 44716 1652 3371 1660 1676 1664 6650 6666 13257 18723 3412 13323 41027 18649 1213 10270 1337 2646 10659 2700 23207 8513 9361 3294 3392 13442 6722 1360 6763 1350 3474 13296 21326 7273 1746 892 1731 2607 842 1700 678 2717 19429 9383 6907 9071 21208 1715 867 2616 5971 6661
leaf_count=16662 4289 1638 8326 4671 1995 3954 9989 47885 6765 4651 48950 44716 1652 3371 1660 1676 1664 6650 6666 13257 18723 3412 13323 41027 18649 1213 10270 1337 2646 10659 2700 23207 8513 9361 3294 3392 13442 6722 1360 6763 1350 3474 13296 21326 7273 1746 892 1731 2607 842 1700 678 2717 19429 9383 6907 9071 21208 1715 867 2616 5971 6661
internal_value=0 -0.00213131 0.00348109 0.00921383 0.017665 0.00698099 0.0368763 0.0485956 -0.055078 -0.0328713 0.0426274 -0.0246219 -0.017948 -0.00147747 -0.0103419 -0.00356462 -0.054284 -0.0434188 -0.043453 -0.0572795 0.0334326 -0.0523288 -0.0578486 -0.0180495 -0.0118129 -0.0406865 -0.0568097 0.0289642 0.0264414 -0.0127729 0.0365551 0.0789959 -0.062161 -0.0550976 -0.0844223 -0.0462116 -0.0113063 -0.0219212 0.06976 0.102046 0.0246062 -0.017134 -0.0071815 0.00170049 0.00971893 -0.0406048 -0.0131707 -0.0558413 -0.0451934 -0.044664 -0.0521766 0.0556834 -0.0737166 -0.0622358 -0.054825 0.00157748 -0.00289497 0.051685 -0.0284301 -0.0683877 0.00350268 -0.0890781 -0.104783
internal_weight=0 501089 458239 415566 332530 232884 133074 99804 83471 99810 99646 83036 74712 51423 48052 46392 23289 21637 66809 46701 66608 42673 19973 66347 59676 34347 24063 66292 64955 13305 51650 33196 42850 38561 8324 5030 20108 26783 33354 10108 3345 13793 20018 33270 28599 29200 10443 18757 8697 17026 16184 23246 6671 33463 28812 10381 10284 22568 7805 3474 4331 7671 19918
internal_count=584560 501089 458239 415566 332530 232884 133074 99804 83471 99810 99646 83036 74712 51423 48052 46392 23289 21637 66809 46701 66608 42673 19973 66347 59676 34347 24063 66292 64955 13305 51650 33196 42850 38561 8324 5030 20108 26783 33354 10108 3345 13793 20018 33270 28599 29200 10443 18757 8697 17026 16184 23246 6671 33463 28812 10381 10284 22568 7805 3474 4331 7671 19918
is_linear=0
shrinkage=0.2


Tree=12
num_leaves=64
num_cat=0
split_feature=2 2 2 2 1 1 1 1 1 1 1 1 1 1 3 1 1 1 1 1 1 1 1 1 1 1 1 1 1 1 1 1 1 4 1 4 1 1 1 1 1 1 1 1 4 0 0 1 1 1 1 1 1 1 1 1 1 1 3 2 1 1 0
split_gain=4636.68 5661.52 2925.4 2168.55 1708.44 1828.11 1916.76 1565.35 2188.22 3574.89 2344.21 2116.48 2236.13 1579.94 1422.63 829.793 1356.02 823.834 897.288 789.185 1144.87 993.871 956.913 1721.98 744.94 1061.99 1147.2 861.621 1417.84 2099.19 1370.77 1431.52 678.464 666.056 636.66 473.782 450.647 695.704 470.441 433.114 430.327 831.415 1199 1161.37 408.532 353.205 646.093 324.053 319.593 794.053 495.297 490.694 315.217 2077.59 972.435 819.758 798.389 566.706 311.174 282.531 280.155 369.85 264.74
threshold=3.5000000000000004 8.5000000000000018 5.5000000000000009 7.5000000000000009 7.5000000000000009 15.500000000000002 17.500000000000004 36.500000000000007 34.500000000000007 33.500000000000007 32.500000000000007 37.500000000000007 38.500000000000007 42.500000000000007 3.5000000000000004 15.500000000000002 5.5000000000000009 5.5000000000000009 39.500000000000007 14.500000000000002 13.500000000000002 12.500000000000002 8.5000000000000018 9.5000000000000018 7.5000000000000009 15.500000000000002 17.500000000000004 36.500000000000007 34.500000000000007 33.500000000000007 37.500000000000007 38.500000000000007 4.5000000000000009 2014.5000000000002 16.500000000000004 2013.5000000000002 14.500000000000002 13.500000000000002 12.500000000000002 8.5000000000000018 49.500000000000007 46.500000000000007 47.500000000000007 44.500000000000007 2015.5000000000002 7.5000000000000009 4.5000000000000009 1.5000000000000002 3.5000000000000004 1.5000000000000002 5.5000000000000009 2.5000000000000004 27.500000000000004 29.500000000000004 25.500000000000004 24.500000000000004 30.500000000000004 15.500000000000002 2.5000000000000004 1.5000000000000002 1.5000000000000002 2.5000000000000004 7.5000000000000009
decision_type=2 2 2 2 2 2 2 2 2 2 2 2 2 2 2 2 2 2 2 2 2 2 2 2 2 2 2 2 2 2 2 2 2 2 2 2 2 2 2 2 2 2 2 2 2 2 2 2 2 2 2 2 2 2 2 2 2 2 2 2 2 2 2
left_child=14 2 24 15 48 19 -7 8 9 10 -8 -9 -13 -14 17 16 32 -1 35 20 21 22 -6 -24 -2 36 -27 28 29 -28 -29 -32 60 62 -17 -19 37 38 39 -26 41 43 -43 -36 -5 46 -20 -35 49 -3 -50 -51 54 -54 55 57 -55 -37 -10 -49 -4 -62 -16
right_child=1 4 3 44 5 6 7 11 58 -11 -12 12 13 -15 33 34 -18 18 45 -21 -22 -23 23 -25 25 26 27 30 -30 -31 31 -33 -34 47 40 52 -38 -39 -40 -41 -42 42 -44 -45 -46 -47 -48 59 50 51 -52 -53 53 56 -56 -57 -58 -59 -60 -61 61 -63 -64
leaf_value=-0.96420363183359969 -0.43660335612160001 -0.86584504102400006 -0.11662084277759988 -0.16139829820159834 1.4588256856384008 -1.0449221117952021 -0.26575200163840124 -2.3615039363071975 0.82549280308480066 -3.9572044508736006 2.5104441864256004 2.1823675510975988 -0.91770234739200029 -0.32462283112320023 -0.67425042581760131 -0.5325864416895989 2.0974677173248013 -0.86600302920960104 -0.69631867013119975 2.022235826451201 -1.0009124564608001 2.0143357483903999 -1.4029326988800002 0.38622084701440262 1.8834278265088003 -1.0080303101951995 0.39394511626239964 -2.6400271594111993 2.6389784274048029 -4.2287707253631996 3.1190498748928031 -0.40887522880000093 -0.51009052753920159 -0.98989133368320026 0.97536888748799988 -0.08728931819520086 3.0050700548735989 -0.90696845045120122 2.647485681190402 0.17897819319039954 2.7847417794048028 -1.3620979162112001 0.4871778967552004 3.7766559611008006 0.49263706215679975 -0.46799694100479883 -1.3690596659712 -0.26799067925760056 -0.89298243870720106 0.46839872993280096 -0.54271402440960237 -0.53731918192640016 2.8477042742463996 -2.1951278884031979 -3.0128533032831997 1.8396076098496004 -0.33607605525759965 -0.80118375896319949 2.6393206153727991 0.24816383482879767 2.4747065722367978 0.32213052354560079 -0.16463958701439943
leaf_weight=8249 13542 3920 1961 29800 3856 7837 58592 3881 3399 3904 3899 3937 15678 31288 17351 1982 19462 11126 7155 3914 3910 3932 3950 11729 1994 3872 31116 1930 3897 1923 1924 23369 2023 743 54787 13025 1982 1914 1955 7858 1952 1931 3905 3912 19995 5414 5430 13124 7857 3900 7764 3925 2662 1332 2727 1324 11893 11861 4474 23164 1935 3965 7548
leaf_count=8249 13542 3920 1961 29800 3856 7837 58592 3881 3399 3904 3899 3937 15678 31288 17351 1982 19462 11126 7155 3914 3910 3932 3950 11729 1994 3872 31116 1930 3897 1923 1924 23369 2023 743 54787 13025 1982 1914 1955 7858 1952 1931 3905 3912 19995 5414 5430 13124 7857 3900 7764 3925 2662 1332 2727 1324 11893 11861 4474 23164 1935 3965 7548
internal_value=0 0.00108025 0.0213443 0.0390899 -0.0242936 -0.0167471 -0.0267187 -0.0208793 -0.00195205 -0.0137833 -0.0021695 -0.0465253 -0.0356497 -0.0477971 -0.0402452 0.0563862 0.0845475 -0.0574954 -0.0507895 0.0268544 0.014813 0.0315288 0.0130198 -0.00890071 -0.00557757 0.00145432 -0.00935975 -0.00296719 0.0169193 0.00343746 -0.0299707 -0.0175356 0.0241308 -0.0173378 0.044304 -0.0382711 0.0483371 0.035382 0.0535464 0.0356552 0.04764 0.0448229 -0.0270906 0.0519843 0.00510022 -0.0896559 -0.10807 -0.000312698 -0.0706414 -0.0455893 -0.0894256 -0.00868433 -0.0290758 -0.00639275 -0.041506 -0.0296411 -0.0388859 -0.0378232 0.0977127 0.00235267 0.0507608 0.0725367 -0.0426304
internal_weight=0 440432 244886 147610 195546 168180 136889 129052 74268 66395 62491 54784 50903 46966 144128 97815 29346 82198 73949 31291 27377 23467 19535 15679 97276 83734 68031 64159 36936 33039 27223 25293 9884 61930 68469 55950 15703 13721 11807 9852 66487 64535 5836 58699 49795 17999 12585 37031 27366 11745 15621 7825 44824 15887 28937 26210 13225 24886 7873 36288 7861 5900 24899
internal_count=584560 440432 244886 147610 195546 168180 136889 129052 74268 66395 62491 54784 50903 46966 144128 97815 29346 82198 73949 31291 27377 23467 19535 15679 97276 83734 68031 64159 36936 33039 27223 25293 9884 61930 68469 55950 15703 13721 11807 9852 66487 64535 5836 58699 49795 17999 12585 37031 27366 11745 15621 7825 44824 15887 28937 26210 13225 24886 7873 36288 7861 5900 24899
is_linear=0
shrinkage=0.2


Tree=13
num_leaves=64
num_cat=0
split_feature=3 4 0 0 2 0 2 0 0 1 1 1 1 1 1 1 1 1 1 1 0 0 1 1 4 1 1 1 1 1 1 1 1 1 1 1 1 1 1 1 1 1 1 1 1 2 2 2 2 1 2 3 1 0 0 1 1 1 1 1 1 1 2
split_gain=4219.8 3482.58 2303.84 5823.78 1344.65 1176.35 1101.25 1080.74 860.132 823.009 1460.07 1668.62 1999.16 1375.29 1798.17 1039.18 974.253 745.587 940.428 813.735 662.759 613.909 569.532 573.836 542.872 534.706 471.979 2460.76 698.139 613.543 386.089 331.781 526.181 637.689 816.823 634.302 580.88 559.5 694.535 430.122 1159.88 704.456 329 312.043 296.247 278.698 284.914 278.662 329.467 261.12 243.475 240.927 217.478 212.984 592.229 207.464 443.562 258.917 342.121 349.49 208.432 233.626 203.576
threshold=5.5000000000000009 2015.5000000000002 7.5000000000000009 4.5000000000000009 2.5000000000000004 1.5000000000000002 11.500000000000002 3.5000000000000004 8.5000000000000018 49.500000000000007 46.500000000000007 44.500000000000007 39.500000000000007 47.500000000000007 48.500000000000007 41.500000000000007 37.500000000000007 5.5000000000000009 15.500000000000002 17.500000000000004 6.5000000000000009 9.5000000000000018 3.5000000000000004 1.5000000000000002 2014.5000000000002 9.5000000000000018 29.500000000000004 27.500000000000004 25.500000000000004 24.500000000000004 7.5000000000000009 49.500000000000007 46.500000000000007 44.500000000000007 39.500000000000007 47.500000000000007 48.500000000000007 41.500000000000007 43.500000000000007 37.500000000000007 36.500000000000007 34.500000000000007 30.500000000000004 39.500000000000007 42.500000000000007 11.500000000000002 2.5000000000000004 11.500000000000002 4.5000000000000009 49.500000000000007 8.5000000000000018 1.0000000180025095e-35 45.500000000000007 7.5000000000000009 4.5000000000000009 5.5000000000000009 15.500000000000002 17.500000000000004 18.500000000000004 21.500000000000004 3.5000000000000004 1.5000000000000002 11.500000000000002
decision_type=2 2 2 2 2 2 2 2 2 2 2 2 2 2 2 2 2 2 2 2 2 2 2 2 2 2 2 2 2 2 2 2 2 2 2 2 2 2 2 2 2 2 2 2 2 2 2 2 2 2 2 2 2 2 2 2 2 2 2 2 2 2 2
left_child=1 2 3 5 30 47 9 17 55 10 11 12 16 -12 -15 -14 -6 22 25 -20 26 -10 23 -7 53 -19 27 28 29 -5 -3 32 33 34 39 -34 -37 -36 44 40 41 -26 -28 -32 -39 46 -44 48 -1 -45 -50 -9 -13 54 -2 60 -57 -58 -59 -60 61 -4 -23
right_child=24 4 8 20 6 7 -8 51 21 -11 13 52 15 14 -16 -17 -18 18 19 -21 -22 62 -24 -25 31 -27 42 -29 -30 -31 43 -33 35 -35 37 36 -38 38 -40 -41 -42 -43 45 49 -46 -47 -48 -49 50 -51 -52 -53 -54 -55 -56 56 57 58 59 -61 -62 -63 -64
leaf_value=-0.74717815491328143 0.61218711317887875 -0.75153728361728089 -0.61833656014848026 -0.57691483849727943 0.35355611140095822 -0.80024167644928001 -0.48209682091775935 -0.8686881774860794 -0.50107083926207996 1.9153935155494368 -1.6907377777049597 4.2589511194662411 -1.0943983955711987 1.3303312317414395 -1.0159690023782404 -0.10421426347520253 1.6237536610278369 0.25193498299264122 -0.89215509078015887 0.30168498382784181 -1.0286531286092797 0.124142878172799 -0.97414747237375898 0.6122719528511994 0.92154086747008002 1.772718519646719 -2.4027317593088009 2.3092936274124809 -3.0969598114636798 1.0414610735180787 -0.14701640423552079 3.5001241931878369 -1.6240924818905598 3.8374759650854386 -1.0632457128345585 2.2549073096256005 -0.70540009707520146 0.17295522697599852 -0.9572960221952016 2.5604834611891181 -2.0023605922009615 4.5556201725414409 -1.0985571641164793 -0.69597554398463901 2.9215415212390425 -1.3842753501977612 -0.63783631385856276 -1.1508621149849609 -0.041638987508480343 0.68030980699776089 -0.64608133672447821 -0.34039992727807944 1.1607535552486397 0.74142202887680009 -0.41869221672896162 1.166530010769921 -0.63867892948991989 3.25228872629248 -0.71831015980160096 0.53570003695871837 -0.63249895877887852 0.67809037313023879 -0.60450101235199727
leaf_weight=9831 13276 4589 606 28691 111986 1233 17033 4956 30032 3022 3072 2996 6107 3016 2977 8995 6035 4728 2361 39800 30075 27400 2405 2394 34244 7181 1194 2454 2377 1185 20688 955 999 2013 1997 1010 1008 975 1045 2059 1011 1996 3934 6333 1019 2052 18139 2591 10058 654 7539 25063 3073 10013 9982 6016 1242 597 1744 17503 1231 1219 2551
leaf_count=9831 13276 4589 606 28691 111986 1233 17033 4956 30032 3022 3072 2996 6107 3016 2977 8995 6035 4728 2361 39800 30075 27400 2405 2394 34244 7181 1194 2454 2377 1185 20688 955 999 2013 1997 1010 1008 975 1045 2059 1011 1996 3934 6333 1019 2052 18139 2591 10058 654 7539 25063 3073 10013 9982 6016 1242 597 1744 17503 1231 1219 2551
internal_value=0 -0.0156551 -0.0292817 -0.0407507 0.00474915 -0.0119173 0.0119216 -0.000488 -0.00252463 0.0173529 0.0152407 0.0203095 0.0156272 -0.0625037 -0.0066012 -0.0528688 0.0243983 0.0149835 0.0224323 0.00839533 -0.0791883 -0.0163835 -0.0516625 -0.00142714 0.0328806 0.0720605 -0.0670107 -0.0518117 -0.0665174 -0.0581741 -0.0326458 0.0459885 0.0437065 0.0489794 0.0439555 -0.0370803 0.0272053 -0.0317885 0.0220847 0.0536765 0.0487245 0.0546363 -0.0878124 -0.0237005 0.0914297 -0.0826751 -0.0760457 -0.0462055 -0.0402385 -0.0602552 -0.0237944 -0.031483 0.122857 0.0130306 0.00250121 0.0250185 0.0305989 0.0168894 0.0224609 0.017786 -0.0242503 0.0183706 0.0038586
internal_weight=0 500958 300382 210241 200576 120140 168312 90121 90141 151279 148257 139192 133123 9065 5993 15102 118021 60102 54070 42161 90101 59983 6032 3627 83602 11909 60026 34707 32253 29876 32264 50331 49376 46359 44346 3017 2018 5036 3039 39310 37251 36240 25319 27675 1994 24125 22073 30019 27428 6987 17597 30019 6069 33271 23258 30158 27102 21086 19844 19247 3056 1825 29951
internal_count=584560 500958 300382 210241 200576 120140 168312 90121 90141 151279 148257 139192 133123 9065 5993 15102 118021 60102 54070 42161 90101 59983 6032 3627 83602 11909 60026 34707 32253 29876 32264 50331 49376 46359 44346 3017 2018 5036 3039 39310 37251 36240 25319 27675 1994 24125 22073 30019 27428 6987 17597 30019 6069 33271 23258 30158 27102 21086 19844 19247 3056 1825 29951
is_linear=0
shrinkage=0.2


Tree=14
num_leaves=64
num_cat=0
split_feature=3 0 0 1 1 1 1 1 1 1 1 1 1 1 1 0 0 1 1 1 0 1 2 2 1 1 1 0 0 4 1 0 0 0 1 3 1 1 1 1 2 2 1 1 1 1 4 1 4 2 1 1 0 4 1 4 0 0 0 1 0 0 3
split_gain=3380.69 1814.38 4334.72 1603.94 3052.07 3270.66 3081.76 2988.54 3944.54 6540.6 6361.62 1383.77 2190.81 1130.51 4075.53 912.99 816.234 757.451 1723.91 957.305 754.219 669.26 633.598 721.992 625.182 1762.04 541.414 502.759 481.857 439.899 358.34 293.881 626.695 385.469 281.354 253.26 236.916 371.362 427.053 276.153 231.799 220.665 217.586 368.123 349.791 490.769 212.275 211.226 199.334 187.858 185.181 246.675 179.334 177.675 174.805 168.839 146.886 234.956 154.521 137.314 131.555 363.1 130.61
threshold=2.5000000000000004 7.5000000000000009 4.5000000000000009 7.5000000000000009 15.500000000000002 17.500000000000004 18.500000000000004 21.500000000000004 22.500000000000004 23.500000000000004 25.500000000000004 14.500000000000002 13.500000000000002 9.5000000000000018 8.5000000000000018 1.5000000000000002 2.5000000000000004 3.5000000000000004 1.5000000000000002 5.5000000000000009 8.5000000000000018 2.5000000000000004 11.500000000000002 1.5000000000000002 20.500000000000004 19.500000000000004 12.500000000000002 6.5000000000000009 9.5000000000000018 2015.5000000000002 4.5000000000000009 4.5000000000000009 7.5000000000000009 1.5000000000000002 16.500000000000004 1.0000000180025095e-35 38.500000000000007 37.500000000000007 36.500000000000007 42.500000000000007 11.500000000000002 4.5000000000000009 49.500000000000007 46.500000000000007 44.500000000000007 39.500000000000007 2015.5000000000002 7.5000000000000009 2015.5000000000002 7.5000000000000009 47.500000000000007 48.500000000000007 3.5000000000000004 2013.5000000000002 49.500000000000007 2014.5000000000002 7.5000000000000009 4.5000000000000009 1.5000000000000002 5.5000000000000009 7.5000000000000009 4.5000000000000009 1.0000000180025095e-35
decision_type=2 2 2 2 2 2 2 2 2 2 2 2 2 2 2 2 2 2 2 2 2 2 2 2 2 2 2 2 2 2 2 2 2 2 2 2 2 2 2 2 2 2 2 2 2 2 2 2 2 2 2 2 2 2 2 2 2 2 2 2 2 2 2
left_child=1 2 15 17 11 34 -7 24 -9 -10 -11 12 13 14 -5 40 42 18 -2 30 46 56 23 -4 25 -8 31 35 47 36 -19 33 -33 -15 -6 -25 37 38 -18 -38 41 -1 43 44 45 -17 -3 -22 -30 -43 -45 -52 -31 -49 -41 -37 57 58 -20 -57 61 -13 -29
right_child=3 20 22 4 5 6 7 8 9 10 -12 60 -14 26 -16 16 29 19 21 -21 28 -23 -24 27 -26 -27 -28 62 48 52 -32 32 -34 -35 -36 55 39 -39 -40 54 -42 49 -44 50 -46 -47 -48 53 -50 -51 51 -53 -54 -55 -56 59 -58 -59 -60 -61 -62 -63 -64
leaf_value=-0.64197625971302374 -0.58909607574297673 0.19741856241817857 -1.1497403166474225 2.0228793604155526 -1.0637807589269113 2.9274742339222999 -1.201959985637248 3.8978416689788151 -2.5360809813002252 3.3137237081557771 0.028936618918910997 4.0707473594018531 -0.75926022535705617 0.21957121170265453 -1.1041740759741445 0.734574667105791 -0.24163387409894313 -0.39476421857996802 0.23664512024473369 -0.14501288571750451 -0.64745575579046033 -0.023804852234751196 -1.2084528863772173 -0.63639759564339338 -1.2310818758026274 0.26916168363071907 2.5466552932733464 -1.002683337977345 -0.11261789353023915 0.45355812069299123 -0.84934508820543897 0.013671159653374333 1.4175674485203205 2.0283570774858219 -0.54319723899494654 -0.50095959713190619 -1.0181397522288642 1.8668839611211483 -2.2065686923892458 -0.57525333742476692 -1.0242875774689268 0.057126885564929356 2.5134671815315208 -1.5749584552622098 2.6658833570019187 -0.64448786243724931 0.92324979434342436 -0.71521404175526448 0.42414028330803294 -0.47878093056102533 0.89134666700787479 -1.0518779421948814 -0.14769287200307132 -0.24956810200742369 0.64939607462041382 -0.55342706914867179 1.9036046950993979 0.15833719190771378 1.9788596875179516 -0.19929567626803149 4.4643751250823644 0.75463452989849322 -0.71698136895027142
leaf_weight=8220 6681 15115 6222 6666 6660 6651 6645 6662 6705 13416 166963 2684 6637 2008 6567 19615 21643 6717 655 13428 3493 6787 6486 13883 6647 6617 6637 6935 15011 10045 6689 5995 6034 6013 6709 10978 2410 642 609 4186 2153 6299 480 489 1006 2545 9942 4304 10059 8437 495 506 10046 17241 599 1682 2039 2019 1998 14951 1997 1981 13926
leaf_count=8220 6681 15115 6222 6666 6660 6651 6645 6662 6705 13416 166963 2684 6637 2008 6567 19615 21643 6717 655 13428 3493 6787 6486 13883 6647 6617 6637 6935 15011 10045 6689 5995 6034 6013 6709 10978 2410 642 609 4186 2153 6299 480 489 1006 2545 9942 4304 10059 8437 495 506 10046 17241 599 1682 2039 2019 1998 14951 1997 1981 13926
internal_value=0 -0.025343 -0.0364793 0.00538822 0.0110011 0.00115364 0.00698556 0.00280814 0.0103938 0.00500399 0.0122184 0.0542254 0.0420013 0.0596995 0.011845 -0.00929602 0.00170715 -0.0288494 0.000395425 -0.050862 0.000648953 0.0415512 -0.072837 -0.0671622 -0.0709715 -0.0457884 0.0834015 -0.0606559 -0.0135096 -0.01302 -0.0886707 0.0669318 0.0470398 0.0966582 -0.0948837 -0.0478826 -0.0283259 -0.0183335 -0.0226907 -0.0600144 -0.0423217 -0.0363858 0.0311302 0.0284919 0.0347094 0.0294266 0.0289857 -0.0331369 0.00606951 -0.0216691 -0.0676383 -0.0175113 0.00987265 -0.0256906 -0.0319929 -0.0367488 0.0863248 0.0664351 0.105567 -0.023971 0.139503 0.120563 -0.086023
internal_weight=0 250653 175488 333907 286894 233675 220306 213655 193746 187084 180379 53219 46557 39920 13233 100425 75316 47013 20179 26834 75165 13498 75063 68577 19909 13262 26687 62355 50108 50180 13406 20050 12029 8021 13369 41494 30089 22894 22252 7195 25109 22956 25136 24656 23166 22160 25057 25038 25070 14736 1490 1001 20091 21545 4785 27611 6711 4672 2653 16633 6662 4665 20861
internal_count=584560 250653 175488 333907 286894 233675 220306 213655 193746 187084 180379 53219 46557 39920 13233 100425 75316 47013 20179 26834 75165 13498 75063 68577 19909 13262 26687 62355 50108 50180 13406 20050 12029 8021 13369 41494 30089 22894 22252 7195 25109 22956 25136 24656 23166 22160 25057 25038 25070 14736 1490 1001 20091 21545 4785 27611 6711 4672 2653 16633 6662 4665 20861
is_linear=0
shrinkage=0.2


Tree=15
num_leaves=64
num_cat=0
split_feature=4 2 2 2 2 3 1 3 1 1 1 1 1 1 1 1 1 2 2 1 1 1 1 1 1 1 1 1 1 1 1 1 1 1 1 1 1 1 1 1 3 1 1 1 1 1 1 2 0 0 1 1 1 1 1 1 1 1 1 1 1 1 1
split_gain=3215.23 2397.92 4208.72 1410.54 1061.77 873.322 854.493 836.146 790.129 2104.26 2771.78 1960.23 1935.44 1800.61 1514.06 1604.52 708.921 626.522 1285.5 605.276 729.001 589.728 563.054 1189.35 555.67 1398.6 1260.61 2310.46 1133.04 517.297 421.423 1284.31 1118.1 2049.2 962.177 938.379 795.542 621.162 560.644 409.865 375.64 375.33 950.761 634.507 633.151 779.037 697.861 313.043 310.503 698.36 299.543 330.659 719.541 1168.04 630.241 569.289 245.772 227.231 496.394 466.021 787.769 426.321 392.022
threshold=2013.5000000000002 4.5000000000000009 7.5000000000000009 6.5000000000000009 11.500000000000002 1.0000000180025095e-35 5.5000000000000009 4.5000000000000009 36.500000000000007 34.500000000000007 33.500000000000007 37.500000000000007 38.500000000000007 32.500000000000007 31.500000000000004 27.500000000000004 49.500000000000007 4.5000000000000009 8.5000000000000018 3.5000000000000004 1.5000000000000002 7.5000000000000009 46.500000000000007 44.500000000000007 36.500000000000007 37.500000000000007 34.500000000000007 33.500000000000007 38.500000000000007 47.500000000000007 36.500000000000007 37.500000000000007 34.500000000000007 33.500000000000007 38.500000000000007 32.500000000000007 42.500000000000007 43.500000000000007 31.500000000000004 39.500000000000007 1.0000000180025095e-35 22.500000000000004 23.500000000000004 25.500000000000004 27.500000000000004 29.500000000000004 26.500000000000004 11.500000000000002 7.5000000000000009 4.5000000000000009 49.500000000000007 36.500000000000007 34.500000000000007 33.500000000000007 37.500000000000007 38.500000000000007 35.500000000000007 36.500000000000007 37.500000000000007 34.500000000000007 33.500000000000007 38.500000000000007 32.500000000000007
decision_type=2 2 2 2 2 2 2 2 2 2 2 2 2 2 2 2 2 2 2 2 2 2 2 2 2 2 2 2 2 2 2 2 2 2 2 2 2 2 2 2 2 2 2 2 2 2 2 2 2 2 2 2 2 2 2 2 2 2 2 2 2 2 2
left_child=5 6 3 30 7 -1 19 21 9 10 13 -10 -13 14 15 -8 22 -7 57 20 -2 -4 23 -14 26 -26 27 -23 -27 -24 32 -32 33 35 -33 38 39 -38 -3 -36 -6 -5 -43 -44 46 -46 -45 -20 49 -42 51 52 53 -9 -53 -56 -11 59 -59 60 62 -60 -19
right_child=1 2 4 41 40 17 8 50 11 56 -12 12 16 -15 -16 -17 -18 18 47 -21 -22 24 29 -25 25 28 -28 -29 -30 -31 31 34 -34 -35 36 -37 37 -39 -40 -41 48 42 43 44 45 -47 -48 -49 -50 -51 -52 54 -54 -55 55 -57 -58 58 61 -61 -62 -63 -64
leaf_value=-0.81801630773954415 -0.75988587041474531 0.51562610241976337 -0.3739216937548534 1.3027961440319531 -0.89019892558417912 -0.55133806409776587 -0.22036241526184952 0.5441005874647431 -2.4340741245359609 0.83602928582697311 -3.3318993054714614 2.0877195700817546 -0.48130604024074164 2.0695782669878287 -1.5912666129476216 1.243296246146973 0.62253672099515001 0.18800172281863825 -0.41541777083632642 -0.75436969374127372 0.065367014246375282 0.12024393645926566 -1.2300101532220939 0.72071784164085817 -1.9833860787740278 2.3820452331972066 1.9287453703335986 -3.647353267726952 -0.28654920398295119 -0.51754786265127639 -2.0417136781613436 4.166901840068566 3.5342257557777432 -3.8455039649849341 0.31134978626396265 4.4353594837358346 2.0470809571131396 0.21550150044937055 -1.0474410331848703 -0.83765506029834291 -0.15128464881815235 -1.847410024028725 5.7112675863157385 0.88666349034185155 8.7750697493050627 1.0221509420125174 -5.7607394273291268 -0.85700190191354941 0.0057532566795018177 -0.69287601431611001 2.7262079334557656 -2.0044563681456382 3.8492392918272267 -3.4788997675126754 4.4118155662208283 -0.13787980820208504 2.4423760647324424 -2.1989924544175885 2.8123300149833228 2.423300346866458 -3.5125093149617657 -0.21101289507568879 3.3830935427881474
leaf_weight=16631 3035 48373 15732 17505 5461 32885 67473 29782 3073 3061 3090 3074 18435 3116 3116 12291 3081 21532 24907 6192 6174 57632 3032 6128 2220 2237 4471 2243 26768 6156 1582 1574 3129 1561 1568 1601 1540 10928 1547 4618 13773 798 1574 780 1550 16713 811 8339 10292 10370 897 888 1782 926 872 9901 3088 700 687 1383 700 8199 672
leaf_count=16631 3035 48373 15732 17505 5461 32885 67473 29782 3073 3061 3090 3074 18435 3116 3116 12291 3081 21532 24907 6192 6174 57632 3032 6128 2220 2237 4471 2243 26768 6156 1582 1574 3129 1561 1568 1601 1540 10928 1547 4618 13773 798 1574 780 1550 16713 811 8339 10292 10370 897 888 1782 926 872 9901 3088 700 687 1383 700 8199 672
internal_value=0 0.000458881 0.0104776 0.0403701 -0.0074557 -0.0366569 -0.0200158 -2.03413e-05 -0.0150299 -0.0048634 -0.0126815 -0.0375409 -0.0256629 -0.00598357 -0.0116041 -0.00625046 -0.0384032 -0.0295877 -0.0184914 -0.0647094 -0.0320866 -0.00932907 -0.0467969 -0.0309526 -0.00341495 -0.02531 0.00720106 -0.00044057 -0.013568 -0.0890638 0.0247357 0.00110854 0.0338916 0.0270242 0.0147191 0.033879 0.00200357 0.0311268 0.0290243 -0.0565816 -0.0365769 0.0710521 0.0537219 0.0617322 0.0519808 0.0625415 -0.0687478 -0.046431 -0.0288165 -0.0412152 0.0229647 0.0206183 0.0309907 0.0237889 -0.00822881 0.00508358 0.108255 0.0089143 -0.0171218 0.019217 0.0123709 -0.00425027 0.0189932
internal_weight=0 467614 313999 117752 196247 116635 153615 156351 138214 95235 89086 42979 39906 85996 82880 79764 36832 100004 67119 15401 9209 111303 33751 24563 95571 31225 64346 59875 29005 9188 78021 21810 56211 53082 20228 51521 18654 12468 49920 6186 39896 39731 22226 21428 19854 18263 1591 33246 34435 24143 45048 44151 32490 30708 11661 10773 6149 33873 9586 24287 22904 8886 22204
internal_count=584249 467614 313999 117752 196247 116635 153615 156351 138214 95235 89086 42979 39906 85996 82880 79764 36832 100004 67119 15401 9209 111303 33751 24563 95571 31225 64346 59875 29005 9188 78021 21810 56211 53082 20228 51521 18654 12468 49920 6186 39896 39731 22226 21428 19854 18263 1591 33246 34435 24143 45048 44151 32490 30708 11661 10773 6149 33873 9586 24287 22904 8886 22204
is_linear=0
shrinkage=0.2


Tree=16
num_leaves=64
num_cat=0
split_feature=0 0 0 0 0 0 1 1 1 1 1 1 1 1 0 1 1 1 1 1 1 1 1 1 1 2 4 3 2 3 1 1 1 1 1 1 1 1 1 1 1 4 1 1 1 1 1 1 1 1 1 1 1 1 1 2 1 1 2 2 2 1 1
split_gain=2901.63 8017.75 1997.34 1471.79 1234.46 1028.17 935.849 1247.13 1526.72 1546.88 1148.64 1243.23 1029.52 867.355 852.251 698.89 3527.14 1620.52 1032.3 485.088 579.573 427.566 790.94 1071.46 1295.92 412.482 367.819 353.832 342.805 315.832 307.725 1025.36 952.756 2079.85 846.055 927.809 714.173 429.325 609.471 518.921 409.516 275.01 257.126 342.937 496.248 389.352 255.957 388.953 696.199 492.901 466.318 594.546 364.883 254.799 239.833 238.634 208.343 215.375 205.873 406.307 198.898 182.128 234.17
threshold=7.5000000000000009 4.5000000000000009 1.5000000000000002 3.5000000000000004 6.5000000000000009 8.5000000000000018 49.500000000000007 46.500000000000007 44.500000000000007 39.500000000000007 47.500000000000007 48.500000000000007 41.500000000000007 5.5000000000000009 9.5000000000000018 29.500000000000004 27.500000000000004 26.500000000000004 30.500000000000004 5.5000000000000009 13.500000000000002 31.500000000000004 32.500000000000007 33.500000000000007 34.500000000000007 1.5000000000000002 2014.5000000000002 4.5000000000000009 1.5000000000000002 1.0000000180025095e-35 23.500000000000004 25.500000000000004 27.500000000000004 29.500000000000004 22.500000000000004 21.500000000000004 30.500000000000004 18.500000000000004 17.500000000000004 15.500000000000002 36.500000000000007 2013.5000000000002 7.5000000000000009 15.500000000000002 17.500000000000004 18.500000000000004 49.500000000000007 46.500000000000007 44.500000000000007 43.500000000000007 47.500000000000007 48.500000000000007 42.500000000000007 26.500000000000004 24.500000000000004 11.500000000000002 4.5000000000000009 1.5000000000000002 4.5000000000000009 8.5000000000000018 11.500000000000002 9.5000000000000018 13.500000000000002
decision_type=2 2 2 2 2 2 2 2 2 2 2 2 2 2 2 2 2 2 2 2 2 2 2 2 2 2 2 2 2 2 2 2 2 2 2 2 2 2 2 2 2 2 2 2 2 2 2 2 2 2 2 2 2 2 2 2 2 2 2 2 2 2 2
left_child=1 2 28 6 15 27 7 8 9 13 -9 -12 -11 -4 30 16 17 19 -17 56 -21 -20 -23 -24 -25 -6 -5 58 -1 -16 34 -32 53 -34 35 37 -35 38 39 -7 -38 -30 -28 -44 -45 -46 47 48 49 52 -49 -52 -31 -33 -22 -27 57 -3 -2 -60 61 -43 -63
